
\data\
ngram 1=20550
ngram 2=72333

\1-grams:
-3.859336	三	-0.062384
-4.558307	时刻表	-0.062384
-4.859336	聚餐	-0.062384
-4.859336	实质性	-0.062384
-4.859336	博学	-0.062384
-3.713208	安全	-0.292833
-4.257277	下去了	-0.664444
-4.859336	五百名	-0.062384
-4.859336	接住	-0.062384
-4.859336	线段	-0.062384
-4.859336	社会论文	-0.062384
-4.382215	深深	-0.062384
-4.382215	众多	-0.238475
-4.558307	尖	-0.062384
-4.558307	投掷	-0.062384
-3.817944	公共	-0.134935
-4.859336	善良	-0.363414
-4.859336	显现	-0.062384
-4.859336	费劲	-0.062384
-4.558307	比起	-0.062384
-4.859336	庞贝城	-0.062384
-4.859336	甘乃迪	-0.062384
-4.382215	邀	-0.062384
-4.859336	一发	-0.062384
-4.859336	木刻	-0.062384
-4.859336	豁免	-0.062384
-3.604064	表演	-0.229875
-3.580583	长	-0.180483
-4.859336	光去	-0.062384
-4.382215	办公	-0.187323
-4.382215	可追溯	-0.238475
-4.859336	就多	-0.062384
-4.558307	陌生	-0.062384
-4.859336	柏雪	-0.062384
-4.859336	陈旧不堪	-0.062384
-4.859336	粲	-0.062384
-4.859336	厚度	-0.062384
-4.558307	才有	-0.062384
-4.859336	菲律宾群	-0.062384
-4.859336	7路	-0.062384
-4.859336	传真	-0.062384
-4.382215	吹了	-0.238475
-4.558307	碗	-0.363414
-4.558307	牛群	-0.062384
-4.859336	雨点	-0.062384
-4.859336	不象	-0.062384
-4.859336	赛马场	-0.062384
-4.859336	２５分	-0.062384
-4.859336	某些人	-0.062384
-4.859336	别担心	-0.363414
-4.859336	好嘛	-0.062384
-4.859336	写起	-0.062384
-4.859336	心脏移植	-0.062384
-4.558307	聪明人	-0.062384
-4.859336	同构	-0.062384
-4.257277	交往	-0.187323
-4.859336	电话了	-0.062384
-4.382215	怒火	-0.539505
-4.382215	各种各样	-0.539505
-4.859336	兄妹	-0.062384
-4.558307	头衔	-0.062384
-4.859336	悬殊	-0.062384
-4.859336	嘘声四起	-0.062384
-3.956246	竞争	-0.325626
-4.859336	移情	-0.062384
-4.558307	个头	-0.062384
-3.628888	出去	-0.238475
-4.558307	爱德华	-0.062384
-4.859336	能生存	-0.062384
-4.014238	打得	-0.062384
-4.859336	鞋样	-0.062384
-4.859336	花蕾	-0.062384
-4.859336	问世	-0.062384
-4.859336	不介	-0.062384
-4.558307	辈子	-0.062384
-4.859336	威信	-0.062384
-4.859336	乐师	-0.062384
-3.905094	这部	-0.273237
-4.859336	克雷特	-0.062384
-4.859336	常指	-0.062384
-4.859336	铺平	-0.062384
-4.859336	硫化锌	-0.062384
-4.859336	科研活动	-0.062384
-4.382215	进行调查	-0.238475
-4.859336	本年	-0.062384
-4.859336	摸起来	-0.062384
-4.859336	罚则	-0.062384
-3.956246	装	-0.062384
-4.558307	插嘴	-0.363414
-4.081185	改善	-0.208512
-4.859336	不显著	-0.062384
-3.604064	狗	-0.132020
-4.382215	竭尽全力	-0.062384
-4.859336	牢不可破	-0.062384
-4.558307	莫斯科	-0.062384
-4.859336	巴拉	-0.062384
-4.160367	自从	-0.094569
-4.558307	暂	-0.062384
-4.859336	够呛	-0.062384
-3.905094	惊讶	-0.217286
-4.859336	延伸	-0.062384
-4.257277	振作起来	-0.187323
-4.859336	那户	-0.062384
-3.683245	报告	-0.152561
-4.859336	粉末状	-0.062384
-4.859336	蓝靛	-0.062384
-4.859336	行市	-0.062384
-4.257277	大人物	-0.187323
-4.859336	乘船	-0.062384
-4.859336	壮实	-0.062384
-4.859336	都成	-0.062384
-4.558307	试一试	-0.363414
-4.859336	夜幕	-0.062384
-4.558307	托比	-0.062384
-4.859336	调度员	-0.062384
-4.859336	国务	-0.062384
-4.859336	害臊	-0.062384
-4.859336	冲撞	-0.062384
-4.859336	鸦雀无声	-0.062384
-3.956246	吃了	-0.062384
-4.859336	付费	-0.062384
-4.859336	九	-0.062384
-4.558307	滥用	-0.062384
-4.382215	黄	-0.062384
-4.859336	时必	-0.062384
-4.160367	混合物	-0.238475
-4.859336	一艘	-0.062384
-4.859336	铁盘	-0.062384
-4.558307	放出	-0.062384
-4.558307	投标人	-0.062384
-3.905094	信仰	-0.103777
-4.859336	失业率	-0.062384
-4.859336	发抖	-0.062384
-4.859336	以致于	-0.062384
-4.859336	智	-0.062384
-4.859336	数据库	-0.062384
-3.580583	一定	-0.155138
-4.558307	每件	-0.062384
-4.558307	相互连接	-0.062384
-4.257277	安装	-0.062384
-3.713208	全	-0.092347
-4.859336	下边	-0.062384
-4.859336	马塔	-0.062384
-4.859336	涉猎	-0.062384
-4.859336	发达国家	-0.062384
-4.382215	球拍	-0.062384
-4.859336	委内瑞拉	-0.062384
-4.558307	弄清楚	-0.062384
-3.713208	感觉	-0.090413
-4.859336	行李票	-0.062384
-4.859336	象征性	-0.062384
-4.382215	说来	-0.238475
-4.859336	导线	-0.062384
-4.859336	侃侃而谈	-0.062384
-4.558307	疑虑	-0.062384
-2.530957	地	-0.143245
-4.257277	正视	-0.187323
-4.382215	马来	-0.238475
-4.382215	反对党	-0.062384
-4.558307	几次	-0.062384
-4.382215	糊	-0.238475
-3.859336	照片	-0.149534
-4.382215	糟了	-0.363414
-4.859336	换掉	-0.062384
-4.859336	虫害	-0.062384
-4.859336	例行程序	-0.062384
-4.859336	干出	-0.062384
-4.859336	不忍	-0.062384
-4.859336	扯	-0.062384
-4.558307	翻了	-0.062384
-4.859336	寄过	-0.062384
-3.780155	球	-0.087208
-4.859336	就来	-0.062384
-4.382215	有危险	-0.238475
-4.081185	对方	-0.208512
-4.257277	撞倒	-0.187323
-4.859336	走开	-0.539505
-4.859336	助	-0.062384
-4.382215	驶入	-0.062384
-4.859336	支枪	-0.062384
-4.859336	调到	-0.062384
-4.160367	较大	-0.284233
-4.859336	极高	-0.062384
-4.558307	栅	-0.062384
-4.859336	听得	-0.062384
-4.558307	天将	-0.062384
-4.558307	怎么办	-0.062384
-4.859336	每人	-0.062384
-4.859336	5％	-0.062384
-4.859336	如痴如狂	-0.062384
-4.859336	让出	-0.062384
-4.257277	少年	-0.062384
-4.859336	担负起	-0.062384
-4.859336	身居	-0.062384
-4.257277	整天	-0.062384
-4.081185	懂得	-0.062384
-4.859336	上点	-0.062384
-3.604064	应该	-0.116742
-4.859336	中了	-0.062384
-4.859336	拆了	-0.062384
-4.859336	呼救声	-0.062384
-4.081185	讲得	-0.141565
-4.859336	肖像	-0.062384
-4.859336	安排妥当	-0.062384
-4.081185	不足	-0.363414
-4.859336	设计师	-0.062384
-4.859336	要喝	-0.062384
-4.859336	副	-0.062384
-3.905094	字母	-0.171529
-4.859336	高效	-0.062384
-4.859336	低声	-0.062384
-4.558307	大选	-0.062384
-4.859336	再加上	-0.062384
-4.859336	000台	-0.363414
-4.382215	烤炉	-0.062384
-4.859336	石脑油	-0.062384
-4.859336	联合起来	-0.062384
-4.081185	在那	-0.171529
-4.859336	依恋	-0.062384
-4.558307	天会	-0.062384
-4.859336	竭诚欢迎	-0.062384
-4.859336	冰封	-0.062384
-4.859336	不精	-0.062384
-4.859336	去请	-0.062384
-4.160367	该项	-0.159294
-4.558307	开口处	-0.062384
-4.859336	上公	-0.062384
-4.160367	情报	-0.284233
-4.859336	左右为难	-0.062384
-4.382215	然后	-0.134935
-4.558307	收取	-0.062384
-4.859336	雄心勃勃	-0.062384
-4.859336	蜗牛	-0.062384
-4.859336	腾出	-0.062384
-4.859336	锁上	-0.062384
-4.859336	都与	-0.062384
-4.859336	成千上万	-0.062384
-4.859336	得意	-0.062384
-4.558307	热病	-0.062384
-4.859336	街口	-0.062384
-4.859336	脱不了	-0.062384
-4.859336	飞尘	-0.062384
-4.859336	通通风	-0.062384
-4.859336	赌具	-0.062384
-4.859336	独立国家	-0.062384
-4.382215	要什么	-0.062384
-4.382215	将能	-0.062384
-4.859336	晚起	-0.062384
-4.859336	贝类	-0.062384
-4.558307	小鸟	-0.062384
-4.859336	和事件	-0.062384
-4.558307	规模	-0.062384
-4.558307	十点	-0.363414
-4.859336	失眠	-0.062384
-4.859336	而定	-0.062384
-4.859336	哪里也	-0.062384
-4.859336	无动於衷	-0.062384
-4.859336	时在	-0.062384
-4.859336	跃然	-0.062384
-4.859336	接二连三	-0.062384
-4.859336	爷爷	-0.062384
-4.859336	好让	-0.062384
-4.859336	黑发	-0.062384
-4.859336	不育	-0.062384
-4.558307	瘦弱	-0.062384
-4.382215	澳洲	-0.238475
-4.859336	生育	-0.062384
-4.859336	会破	-0.062384
-4.014238	自我	-0.129331
-4.257277	悲哀	-0.062384
-4.558307	强行	-0.062384
-4.859336	预想到	-0.062384
-4.859336	阵阵	-0.062384
-4.859336	茅屋	-0.062384
-4.859336	几轮	-0.062384
-4.859336	二手货	-0.062384
-4.859336	大吉大利	-0.062384
-4.859336	没有钱	-0.062384
-4.558307	邮局	-0.062384
-3.479125	困难	-0.552470
-4.859336	前半	-0.062384
-4.382215	补偿	-0.062384
-4.859336	裂开	-0.062384
-4.859336	无间	-0.062384
-4.859336	挺不错	-0.062384
-4.859336	计时员	-0.062384
-4.014238	顾客	-0.187323
-4.257277	断	-0.062384
-4.382215	政党	-0.062384
-4.859336	语调	-0.062384
-4.859336	刮到	-0.062384
-4.859336	前倾	-0.062384
-4.558307	有必要	-0.062384
-4.859336	放过	-0.062384
-4.859336	植物茎	-0.062384
-4.859336	喧宾夺主	-0.062384
-4.859336	安放在	-0.062384
-4.859336	许可证	-0.062384
-4.081185	优秀	-0.606452
-4.558307	净化	-0.062384
-4.859336	特洛伊	-0.062384
-3.745393	有个	-0.062384
-4.859336	动变	-0.062384
-4.859336	性情	-0.062384
-4.160367	来做	-0.062384
-4.859336	如同	-0.062384
-4.859336	无政府	-0.062384
-4.257277	著名	-0.460324
-4.859336	平常	-0.062384
-4.382215	郊区	-0.238475
-4.859336	就此罢休	-0.062384
-4.558307	机密	-0.062384
-4.859336	醇	-0.062384
-4.859336	音量	-0.062384
-4.859336	生命体	-0.062384
-4.859336	高速	-0.062384
-4.859336	想以	-0.062384
-4.859336	保险商	-0.062384
-4.859336	鲁思	-0.062384
-4.859336	恒心	-0.062384
-4.859336	看得见	-0.062384
-4.257277	缓慢	-0.187323
-4.160367	打断	-0.238475
-4.859336	查出	-0.062384
-4.859336	阿尔贝托	-0.062384
-4.558307	在什么	-0.062384
-4.859336	沾亲带故	-0.062384
-4.859336	粘性	-0.062384
-4.558307	四天	-0.062384
-4.558307	区别	-0.062384
-4.859336	隆隆	-0.062384
-4.859336	水彩画	-0.062384
-4.558307	美色	-0.062384
-4.382215	无限	-0.539505
-4.558307	层	-0.062384
-4.859336	落后者	-0.062384
-4.558307	电压	-0.062384
-4.859336	伯伯	-0.062384
-4.859336	很忙	-0.062384
-4.257277	任命	-0.062384
-4.558307	天线	-0.062384
-4.859336	水塔	-0.062384
-4.859336	以免费	-0.062384
-4.558307	乾净	-0.062384
-4.859336	季节性	-0.062384
-4.160367	4	-0.141565
-4.558307	做作业	-0.062384
-4.160367	哥哥	-0.120376
-4.558307	工头	-0.062384
-4.558307	不抱	-0.062384
-4.160367	一点儿	-0.141565
-4.558307	瞧了	-0.062384
-4.859336	澄清	-0.062384
-4.859336	紊乱	-0.062384
-4.859336	点线	-0.062384
-4.859336	将为	-0.062384
-4.558307	签名	-0.062384
-4.558307	并在	-0.062384
-4.382215	玩得	-0.062384
-4.382215	想知道	-0.062384
-4.558307	这架	-0.062384
-4.382215	禁不住	-0.062384
-4.382215	变热	-0.062384
-4.014238	结合	-0.129331
-4.859336	新理论	-0.062384
-4.859336	独一无二	-0.062384
-4.859336	要高	-0.062384
-4.859336	塞满了	-0.062384
-4.859336	心软	-0.062384
-4.859336	收殓	-0.062384
-4.859336	最简单	-0.062384
-4.558307	答	-0.062384
-4.859336	支配权	-0.062384
-4.859336	通勤者	-0.062384
-4.859336	开发者	-0.062384
-4.257277	一开始	-0.062384
-4.859336	电信号	-0.062384
-4.859336	左臂	-0.062384
-4.257277	不及格	-0.187323
-4.558307	水龙	-0.062384
-4.859336	培养出	-0.062384
-4.558307	16	-0.062384
-4.859336	梯	-0.062384
-4.859336	那层	-0.062384
-4.859336	构词法	-0.062384
-4.382215	不足以	-0.062384
-4.859336	交相	-0.062384
-4.014238	特征	-0.062384
-4.859336	繁重	-0.062384
-4.859336	掩	-0.062384
-4.859336	不努力	-0.062384
-4.382215	炸药	-0.062384
-4.859336	轰响	-0.062384
-4.859336	发送	-0.062384
-4.558307	砖头	-0.062384
-4.859336	放逐	-0.062384
-4.160367	事务	-0.460324
-4.859336	脑际	-0.062384
-4.558307	或变	-0.062384
-4.081185	终端	-0.062384
-4.859336	伤员	-0.062384
-4.859336	离题	-0.062384
-4.859336	小公牛	-0.062384
-4.558307	几张	-0.062384
-4.859336	偶	-0.062384
-4.859336	答覆	-0.062384
-4.859336	人大	-0.062384
-4.558307	柄	-0.062384
-4.859336	爱琴海	-0.062384
-4.558307	伪君子	-0.539505
-4.382215	看待	-0.238475
-4.859336	爱丁顿	-0.062384
-4.558307	摔在	-0.363414
-4.859336	也占	-0.062384
-4.859336	升阶	-0.062384
-4.859336	没精打采	-0.062384
-4.859336	心目中	-0.062384
-4.859336	特价	-0.062384
-4.859336	难忍	-0.062384
-3.745393	男人	-0.195010
-4.859336	海中	-0.062384
-4.558307	名著	-0.062384
-4.859336	方对	-0.062384
-4.859336	热情洋溢	-0.062384
-3.580583	警察	-0.144054
-4.382215	理智	-0.062384
-4.859336	合成法	-0.062384
-4.859336	面目	-0.062384
-4.859336	吊起	-0.062384
-4.859336	楼顶上	-0.062384
-4.257277	后来	-0.062384
-4.257277	多久	-0.187323
-4.558307	惯例	-0.062384
-4.859336	拉力	-0.062384
-4.859336	胡说八道	-0.062384
-4.558307	理了	-0.062384
-4.558307	女服	-0.062384
-4.859336	叮	-0.062384
-4.859336	偏激	-0.062384
-4.859336	跳出	-0.062384
-4.859336	不厌其烦	-0.062384
-4.859336	线形	-0.062384
-4.558307	秒	-0.062384
-4.859336	虚度光阴	-0.062384
-4.859336	讥	-0.062384
-4.859336	改造	-0.062384
-4.859336	养尊处优	-0.062384
-4.859336	食用鱼	-0.062384
-3.537117	组织	-0.159294
-4.859336	朦朦	-0.062384
-4.558307	搜查	-0.062384
-4.859336	规范	-0.062384
-4.859336	目的地	-0.062384
-4.382215	结束时	-0.062384
-4.859336	以比	-0.062384
-4.859336	唔	-0.062384
-4.859336	预先指定	-0.062384
-4.382215	国	-0.062384
-4.859336	泪珠	-0.062384
-4.382215	卷起	-0.238475
-4.859336	很熟	-0.062384
-4.859336	肃清	-0.062384
-4.859336	洋蓟	-0.062384
-4.257277	确切	-0.284233
-4.859336	是非	-0.062384
-4.859336	知道吗	-0.062384
-4.558307	气温	-0.062384
-4.859336	不多见	-0.062384
-3.859336	1	-0.141565
-4.859336	来得容易	-0.062384
-3.178095	起来	-0.707479
-4.859336	中介	-0.062384
-4.160367	功课	-0.062384
-4.558307	下方	-0.062384
-4.859336	炸	-0.062384
-4.558307	过火	-0.062384
-4.859336	复苏	-0.062384
-4.558307	呆	-0.062384
-4.382215	免费	-0.062384
-4.257277	假	-0.187323
-3.683245	或者	-0.081689
-4.257277	业务	-0.062384
-4.859336	计算器	-0.062384
-4.558307	下用	-0.062384
-4.859336	自尊心	-0.062384
-4.859336	幼子	-0.062384
-4.859336	用不着	-0.062384
-4.859336	这辈子	-0.062384
-4.859336	得来	-0.062384
-4.382215	血	-0.062384
-4.558307	窗外	-0.062384
-4.558307	汇票	-0.062384
-4.558307	入内	-0.062384
-3.956246	第一个	-0.113537
-4.257277	6	-0.159294
-4.859336	能有	-0.062384
-4.558307	怨恨	-0.062384
-4.859336	深表同情	-0.062384
-4.160367	很容易	-0.062384
-4.859336	安全设备	-0.062384
-4.257277	古	-0.187323
-4.382215	不来	-0.062384
-4.382215	怎	-0.062384
-4.859336	是否是	-0.062384
-4.558307	得意忘形	-0.062384
-4.859336	山口	-0.062384
-4.859336	大手大脚	-0.062384
-4.859336	砰地	-0.062384
-4.558307	给人	-0.062384
-4.859336	戏谑	-0.062384
-4.558307	棘手	-0.363414
-4.859336	版面	-0.062384
-4.859336	风俗习惯	-0.062384
-4.859336	戴在	-0.062384
-4.859336	美国人民	-0.062384
-4.382215	温和	-0.062384
-4.257277	走时	-0.062384
-4.859336	钓丝	-0.062384
-4.558307	轨道	-0.062384
-4.382215	三年	-0.062384
-4.859336	心意	-0.062384
-4.382215	军人	-0.062384
-4.859336	显然是	-0.062384
-4.382215	眼	-0.062384
-3.604064	打开	-0.238475
-4.859336	港湾	-0.062384
-4.558307	上市	-0.062384
-4.859336	被宠	-0.062384
-4.382215	身旁	-0.062384
-4.382215	五倍	-0.062384
-4.859336	苛求	-0.062384
-4.382215	有好处	-0.539505
-4.558307	布置	-0.062384
-4.859336	８	-0.062384
-4.859336	友谊赛	-0.062384
-4.859336	鼻部	-0.062384
-4.382215	就比	-0.062384
-4.558307	数据项	-0.062384
-4.859336	冷却	-0.062384
-4.859336	两性花	-0.062384
-4.558307	少数人	-0.062384
-4.382215	波浪	-0.062384
-4.859336	指靠	-0.062384
-4.558307	人与	-0.062384
-4.160367	那个问题	-0.062384
-4.257277	还未	-0.062384
-4.859336	显示出	-0.062384
-4.859336	订阅	-0.062384
-4.859336	学杂费	-0.062384
-4.859336	角斗场	-0.062384
-4.859336	路易莎	-0.062384
-4.859336	大副	-0.062384
-4.859336	大惑不解	-0.062384
-4.558307	寄出	-0.062384
-4.558307	参阅	-0.062384
-4.382215	那部	-0.266504
-4.859336	每每	-0.062384
-4.859336	何种	-0.062384
-4.859336	赶下来	-0.062384
-3.956246	生命	-0.363414
-4.859336	餍足	-0.062384
-4.558307	这么做	-0.062384
-4.160367	东部	-0.062384
-4.859336	表示敬意	-0.062384
-4.859336	普什	-0.062384
-4.859336	豆	-0.062384
-4.859336	成军	-0.062384
-4.081185	晚	-0.208512
-4.859336	其一	-0.062384
-4.859336	带薪	-0.062384
-4.859336	变魔术	-0.062384
-4.859336	顶峰	-0.062384
-4.859336	指纹	-0.062384
-4.081185	居民	-0.062384
-3.479125	几	-0.155138
-4.558307	断言	-0.062384
-4.859336	黑鸡	-0.062384
-4.859336	同甘苦	-0.062384
-4.257277	适宜	-0.062384
-4.859336	3678	-0.062384
-4.859336	印地安人	-0.062384
-4.160367	装在	-0.062384
-3.713208	结婚	-0.393377
-4.859336	用砖	-0.062384
-4.859336	师	-0.062384
-4.859336	梵蒂冈	-0.062384
-3.956246	地点	-0.217286
-4.859336	火炮	-0.062384
-4.859336	洗碗盘	-0.062384
-4.558307	示意	-0.062384
-4.859336	别家	-0.062384
-3.604064	安排	-0.132965
-4.859336	抛到	-0.062384
-4.382215	冷淡	-0.187323
-4.081185	式样	-0.129331
-4.558307	击球	-0.062384
-4.257277	不合适	-0.363414
-4.859336	爆笑起来	-0.062384
-4.382215	打碎	-0.238475
-4.859336	会进	-0.062384
-4.859336	急匆匆	-0.062384
-4.859336	各自	-0.062384
-4.859336	熟了	-0.062384
-3.516914	那样	-0.245315
-4.859336	长相	-0.062384
-4.859336	恭维	-0.062384
-4.859336	礼服	-0.062384
-4.558307	山峰	-0.062384
-4.160367	鼓励	-0.062384
-4.859336	要由	-0.062384
-4.859336	训令	-0.062384
-4.859336	一站	-0.062384
-4.160367	詹姆斯	-0.141565
-4.558307	赚了	-0.062384
-4.081185	第二	-0.141565
-4.859336	颤声	-0.062384
-4.558307	等一下	-0.062384
-4.859336	小狗	-0.062384
-4.160367	风景	-0.159294
-4.859336	一部分来	-0.062384
-4.558307	糟蹋	-0.238475
-4.859336	帮上	-0.062384
-4.859336	纯正	-0.062384
-4.859336	游民	-0.062384
-3.780155	重	-0.273237
-4.382215	达不到	-0.062384
-4.859336	往来	-0.062384
-4.859336	成品	-0.062384
-3.745393	我方	-0.165046
-4.859336	迷信	-0.062384
-4.257277	吵闹	-0.187323
-4.859336	百分	-0.062384
-4.859336	哈尔滨	-0.062384
-4.160367	急忙	-0.062384
-4.558307	便于	-0.062384
-4.859336	晴朗	-0.062384
-4.859336	俄式	-0.062384
-4.558307	附上	-0.062384
-4.859336	弹头	-0.062384
-4.859336	残骸	-0.062384
-3.444363	一起	-0.115630
-4.859336	吃住	-0.062384
-4.859336	会出去	-0.062384
-4.859336	合计	-0.062384
-4.859336	牡蛎	-0.062384
-4.859336	荒唐	-0.062384
-4.257277	a	-0.062384
-3.859336	去吧	-1.062384
-4.859336	长了	-0.062384
-3.479125	一样	-0.483389
-4.558307	一盒	-0.062384
-4.558307	座	-0.062384
-4.859336	出名	-0.062384
-4.859336	多年前	-0.062384
-4.859336	舒展	-0.062384
-3.745393	车	-0.159294
-4.859336	冰镇	-0.062384
-4.558307	重击	-0.062384
-4.859336	长期使用	-0.062384
-4.859336	闯入	-0.062384
-4.859336	悦耳	-0.062384
-4.859336	膏状物	-0.062384
-4.859336	鼓	-0.062384
-4.859336	就象	-0.062384
-4.859336	加糖	-0.062384
-4.859336	赛程	-0.363414
-4.558307	钱币	-0.062384
-4.859336	肉店	-0.062384
-4.859336	但到	-0.062384
-4.859336	懵	-0.062384
-3.444363	钱	-0.275459
-4.859336	自食其果	-0.062384
-4.859336	重音	-0.062384
-4.859336	汽油桶	-0.062384
-4.558307	意在	-0.062384
-3.905094	采用	-0.113537
-4.558307	队伍	-0.238475
-4.859336	自讨苦吃	-0.062384
-4.859336	盯	-0.062384
-4.859336	准确性	-0.062384
-4.558307	上以	-0.062384
-4.859336	配用	-0.062384
-4.859336	吸引力	-0.062384
-4.558307	呐喊	-0.062384
-4.859336	嫌疑犯	-0.062384
-4.558307	自由党	-0.062384
-4.859336	局	-0.062384
-4.558307	这两件	-0.062384
-4.859336	攀缘植物	-0.062384
-4.558307	丹麦	-0.062384
-4.160367	士兵	-0.062384
-4.859336	记录本	-0.062384
-4.558307	分歧	-0.539505
-4.859336	趣	-0.539505
-4.859336	惟其	-0.062384
-4.859336	乖孩子	-0.062384
-4.558307	帕特里克	-0.062384
-4.859336	迟缓	-0.062384
-4.859336	纤维镜	-0.062384
-4.859336	起草	-0.062384
-4.859336	恍忽	-0.062384
-4.859336	月后	-0.062384
-4.859336	先生们	-0.062384
-4.558307	活力	-0.062384
-4.859336	怪僻	-0.062384
-4.859336	刘	-0.062384
-4.558307	好几个	-0.062384
-4.859336	作料	-0.062384
-4.558307	中学	-0.062384
-3.558306	衣服	-0.197083
-4.859336	在剧	-0.062384
-4.859336	笑声	-0.062384
-4.859336	罐头盒	-0.062384
-4.859336	乳酪	-0.062384
-4.859336	蜂拥而至	-0.062384
-4.859336	纸币	-0.062384
-4.859336	中比	-0.062384
-4.859336	只能在	-0.062384
-4.859336	二把	-0.062384
-4.558307	脑袋	-0.062384
-4.859336	电灯柱	-0.062384
-4.859336	而可	-0.062384
-4.859336	逝世	-0.062384
-4.859336	地被植物	-0.062384
-4.859336	画中人	-0.062384
-4.859336	鳟鱼	-0.062384
-4.382215	得分	-0.062384
-4.859336	傲气	-0.062384
-4.859336	小条	-0.062384
-4.859336	有位	-0.062384
-4.081185	当然	-0.167119
-4.257277	没有看见	-0.187323
-3.956246	表	-0.103777
-4.558307	谈了	-0.062384
-4.859336	啄木鸟	-0.062384
-4.859336	塔楼	-0.062384
-4.859336	早些	-0.062384
-3.780155	原来	-0.167119
-4.859336	第二年	-0.062384
-4.859336	比利牛斯	-0.062384
-4.859336	列为	-0.062384
-3.537117	一个人	-0.159294
-4.859336	着落	-0.062384
-4.859336	规规矩矩	-0.062384
-4.859336	很急	-0.062384
-4.558307	讲完	-0.062384
-4.859336	供养	-0.062384
-4.859336	那一年	-0.062384
-4.859336	哭叫	-0.062384
-4.859336	一袋	-0.062384
-4.558307	哞哞	-0.363414
-4.859336	冲来	-0.062384
-4.257277	清楚地	-0.062384
-4.382215	两次	-0.062384
-4.257277	设想	-0.062384
-4.859336	照上	-0.062384
-4.859336	慢些	-0.062384
-4.558307	较好	-0.363414
-4.859336	胶状	-0.062384
-4.558307	火势	-0.062384
-4.558307	柁	-0.062384
-3.817944	生气	-0.404807
-4.859336	走下坡	-0.062384
-4.859336	印过	-0.062384
-4.558307	下个月	-0.062384
-4.859336	国务院	-0.062384
-4.558307	敲	-0.062384
-4.859336	一瞬	-0.062384
-4.859336	往下看	-0.062384
-4.081185	送给	-0.363414
-4.859336	旧式	-0.062384
-4.859336	也须	-0.062384
-4.257277	得不	-0.062384
-4.859336	全剧	-0.062384
-4.859336	间歇	-0.062384
-4.859336	赛艇	-0.062384
-4.859336	急转弯	-0.062384
-4.859336	纬	-0.062384
-4.859336	揭	-0.062384
-4.382215	尝	-0.062384
-4.859336	相隔	-0.062384
-4.859336	乖	-0.062384
-4.859336	不正	-0.062384
-4.859336	开办	-0.062384
-4.859336	吃腻	-0.062384
-4.558307	海关	-0.363414
-4.382215	决不	-0.187323
-4.859336	棕榈	-0.062384
-4.859336	留人	-0.062384
-4.859336	多个	-0.062384
-4.859336	一百万	-0.062384
-4.859336	看到过	-0.062384
-4.081185	傲慢	-0.238475
-4.382215	院子	-0.238475
-4.382215	9	-0.062384
-3.956246	自	-0.129331
-4.558307	管乐器	-0.062384
-4.257277	吃晚饭	-0.187323
-4.558307	界限	-0.062384
-4.558307	远处	-0.062384
-4.859336	卷片	-0.062384
-3.859336	有什么	-0.100173
-4.558307	冷冰冰	-0.363414
-4.160367	来看	-0.159294
-4.859336	斯波	-0.062384
-4.558307	覆有	-0.062384
-4.382215	两端	-0.062384
-4.160367	自动	-0.062384
-4.859336	取代	-0.062384
-4.859336	弯了	-0.062384
-4.859336	大路	-0.062384
-4.859336	倒给	-0.062384
-4.160367	一股	-0.062384
-4.859336	休闲	-0.062384
-4.558307	弓箭	-0.062384
-4.859336	涂上	-0.062384
-4.859336	刚够	-0.062384
-4.859336	命运之神	-0.062384
-4.160367	粉红色	-0.284233
-4.558307	摘	-0.062384
-4.859336	守规矩	-0.062384
-4.859336	后又	-0.062384
-4.382215	下层	-0.062384
-4.859336	掉得	-0.062384
-4.859336	古今	-0.062384
-4.859336	某公司	-0.062384
-4.859336	相像	-0.062384
-4.859336	阅	-0.062384
-4.014238	布	-0.062384
-4.859336	麦田	-0.062384
-4.859336	有为	-0.062384
-4.859336	也就是	-0.062384
-4.558307	缝起来	-0.062384
-4.558307	中生	-0.062384
-4.859336	力量薄弱	-0.062384
-4.160367	兴奋	-0.460324
-4.859336	能手	-0.062384
-4.558307	开走	-0.363414
-4.859336	妮	-0.062384
-3.279553	可能	-0.170018
-4.859336	伺候	-0.062384
-4.382215	象是	-0.062384
-4.558307	走吧	-0.363414
-4.558307	农夫	-0.062384
-4.859336	牛油	-0.062384
-4.859336	咬紧牙关	-0.062384
-4.859336	同座	-0.062384
-4.859336	泡	-0.062384
-4.859336	开垦	-0.062384
-4.859336	抄袭者	-0.062384
-4.859336	报表	-0.062384
-4.859336	税收	-0.062384
-3.713208	毫无	-0.088713
-4.859336	诸位	-0.062384
-4.382215	令人不快	-0.539505
-4.382215	问候	-0.238475
-4.558307	公斤	-0.062384
-4.859336	头奖	-0.062384
-4.859336	石料	-0.062384
-4.558307	第一位	-0.238475
-4.558307	快点	-0.062384
-4.859336	如用	-0.062384
-3.382215	行为	-0.300221
-4.558307	入侵者	-0.062384
-4.859336	小差	-0.062384
-4.859336	笔录	-0.062384
-4.558307	图象	-0.062384
-4.859336	土中	-0.062384
-4.859336	你问	-0.062384
-4.859336	逐段	-0.062384
-4.859336	猴子	-0.062384
-4.257277	群众	-0.062384
-4.859336	各不相让	-0.062384
-4.859336	暴烈	-0.062384
-4.859336	一跤	-0.363414
-4.859336	始	-0.062384
-4.558307	巴	-0.062384
-4.859336	兜里	-0.062384
-4.859336	受命	-0.062384
-4.859336	转头	-0.062384
-4.859336	供货商	-0.062384
-4.859336	坦率	-0.062384
-4.859336	凝视着	-0.062384
-4.859336	报错	-0.062384
-4.382215	围	-0.062384
-4.859336	傀儡政府	-0.062384
-4.382215	审慎	-0.062384
-4.859336	中和	-0.062384
-4.160367	钱财	-0.062384
-4.859336	马甲	-0.062384
-4.859336	作文	-0.062384
-4.859336	磨细	-0.062384
-4.859336	士气	-0.062384
-4.859336	灵丹妙药	-0.062384
-4.859336	但仍然	-0.062384
-4.859336	剥蚀	-0.062384
-3.558306	事实	-0.212146
-4.859336	在意	-0.062384
-4.558307	团	-0.062384
-4.859336	旧书	-0.062384
-4.859336	无意义	-0.062384
-4.257277	放松	-0.062384
-4.859336	混凝土	-0.062384
-3.905094	有所	-0.113537
-4.859336	该剧	-0.062384
-4.859336	精力充沛	-0.062384
-4.859336	侵权	-0.062384
-4.859336	买不起	-0.062384
-4.859336	不小	-0.062384
-4.859336	野外工作	-0.062384
-4.859336	风雨	-0.062384
-4.859336	永恒不变	-0.062384
-4.859336	坐坐	-0.062384
-4.558307	就可	-0.062384
-4.859336	吼声	-0.062384
-4.859336	算出来	-0.062384
-4.558307	有机体	-0.062384
-4.558307	岛上	-0.062384
-4.558307	好主意	-0.363414
-4.160367	队员	-0.238475
-4.859336	也未	-0.062384
-4.859336	地域	-0.062384
-4.558307	新型	-0.062384
-4.859336	接口	-0.062384
-4.859336	最爱	-0.062384
-4.859336	琴键	-0.062384
-3.780155	节目	-0.305422
-4.859336	对不起	-0.761354
-4.859336	来来往往	-0.062384
-4.382215	来接	-0.062384
-4.859336	爱发牢骚	-0.062384
-4.382215	刎	-0.539505
-4.859336	不可行	-0.062384
-4.859336	平衡状态	-0.062384
-4.558307	匍匐	-0.062384
-4.859336	只要能	-0.062384
-4.859336	恰当	-0.062384
-4.859336	微	-0.062384
-4.859336	早早	-0.062384
-4.382215	害羞	-0.238475
-4.859336	冷汗	-0.062384
-4.859336	决窍	-0.062384
-4.859336	汽酒	-0.062384
-4.859336	就使	-0.062384
-4.558307	心情不好	-0.363414
-4.859336	没有出去	-0.062384
-4.558307	而死	-0.363414
-4.558307	绰号	-0.062384
-3.558306	主要	-0.094569
-4.160367	条款	-0.062384
-4.859336	盛年	-0.062384
-4.859336	美中	-0.062384
-4.859336	吃笑	-0.062384
-4.558307	口号	-0.363414
-4.859336	误认为	-0.062384
-4.859336	全镇	-0.062384
-4.859336	芜菁	-0.062384
-4.558307	有一点	-0.062384
-4.859336	尖刻	-0.062384
-4.859336	白生	-0.062384
-4.859336	拳击选手	-0.062384
-4.859336	易被	-0.062384
-3.905094	现代	-0.062384
-4.257277	与之	-0.159294
-4.081185	主意	-0.108142
-4.081185	技巧	-0.062384
-4.160367	低于	-0.062384
-4.558307	判	-0.062384
-4.558307	出乎意料	-0.363414
-4.558307	已取得	-0.062384
-4.859336	精度	-0.062384
-4.859336	十几	-0.062384
-4.382215	窗子	-0.187323
-4.859336	发现有	-0.062384
-4.859336	怀中	-0.062384
-4.859336	一码事	-0.062384
-4.257277	治安	-0.284233
-4.558307	补	-0.062384
-4.859336	柳树	-0.062384
-4.859336	缸里	-0.062384
-4.859336	开朗	-0.062384
-4.382215	移民	-0.062384
-4.859336	穆斯林	-0.363414
-4.859336	一段路	-0.062384
-4.257277	工会	-0.062384
-4.558307	浸透	-0.062384
-4.859336	调频	-0.062384
-4.558307	太阳系	-0.062384
-4.859336	任由	-0.062384
-4.859336	电广	-0.062384
-4.859336	原定	-0.062384
-4.558307	可能要	-0.062384
-4.859336	枪伤	-0.062384
-4.859336	立	-0.062384
-4.859336	派对	-0.062384
-4.859336	小径	-0.062384
-4.081185	说不出	-0.363414
-4.859336	谋杀者	-0.062384
-4.859336	而对	-0.062384
-4.859336	想开	-0.062384
-4.859336	稳步	-0.062384
-4.558307	任何事物	-0.062384
-4.859336	适应环境	-0.062384
-4.859336	道德上	-0.062384
-3.956246	刚	-0.062384
-4.859336	迫不及待	-0.062384
-4.859336	几套	-0.062384
-4.859336	舒服	-0.062384
-4.859336	笔调	-0.062384
-4.382215	归来	-0.062384
-4.859336	某段	-0.062384
-3.537117	船	-0.108142
-4.160367	种种	-0.062384
-4.859336	漫谈	-0.062384
-4.558307	置	-0.062384
-4.859336	不寻常	-0.062384
-4.558307	原版	-0.363414
-4.558307	拨出	-0.062384
-4.859336	歌唱家	-0.062384
-4.081185	木材	-0.062384
-4.859336	用线	-0.062384
-4.257277	森林	-0.062384
-4.558307	加了	-0.062384
-4.558307	各国	-0.062384
-3.580583	母亲	-0.198047
-4.859336	纯属	-0.062384
-4.859336	借款人	-0.062384
-4.558307	哪一个	-0.363414
-4.859336	准备充分	-0.062384
-4.859336	疯	-0.062384
-4.859336	给与	-0.062384
-4.859336	天津	-0.062384
-4.382215	肩膀	-0.062384
-4.558307	有勇气	-0.062384
-4.257277	也是	-0.062384
-4.859336	妓女	-0.062384
-4.859336	罪恶感	-0.062384
-4.859336	罚款单	-0.062384
-4.859336	哈曼	-0.062384
-4.859336	不紧	-0.062384
-4.859336	税额	-0.062384
-4.558307	精疲力竭	-0.062384
-4.382215	月份	-0.062384
-4.859336	承救	-0.062384
-4.859336	前仰后合	-0.363414
-4.859336	查究	-0.062384
-4.859336	out	-0.062384
-4.859336	你喝	-0.062384
-4.382215	被子	-0.062384
-4.558307	一幕	-0.062384
-4.558307	明智	-0.363414
-4.558307	沉睡	-0.062384
-4.859336	群落	-0.062384
-4.859336	稳稳当当	-0.062384
-4.558307	筋疲力尽	-0.062384
-3.780155	价值	-0.129331
-4.859336	卓著	-0.062384
-4.859336	好几种	-0.062384
-4.558307	后院	-0.062384
-4.859336	不存在	-0.062384
-4.081185	对抗	-0.238475
-4.859336	捅了	-0.062384
-4.859336	阿尼	-0.062384
-4.859336	贵重	-0.062384
-4.558307	衣着	-0.062384
-4.382215	省	-0.539505
-4.859336	粗	-0.062384
-4.859336	十日	-0.062384
-4.382215	上锁	-0.238475
-4.859336	皱折	-0.062384
-4.081185	留下了	-0.141565
-4.859336	培育	-0.062384
-4.859336	提拔	-0.062384
-4.859336	年限	-0.062384
-4.859336	蜇	-0.062384
-4.859336	整一下	-0.062384
-4.257277	传来	-0.062384
-4.859336	信口	-0.062384
-4.014238	主	-0.062384
-4.558307	小儿子	-0.062384
-4.382215	哈里	-0.062384
-4.859336	人中	-0.062384
-4.859336	不相信	-0.062384
-4.859336	有朝一日	-0.062384
-4.859336	禀赋	-0.062384
-4.558307	挤	-0.062384
-4.859336	若能	-0.062384
-4.382215	怂恿	-0.062384
-4.859336	发盘	-0.062384
-4.859336	掰	-0.062384
-4.859336	别针	-0.062384
-4.558307	搞乱	-0.539505
-4.859336	热饮	-0.062384
-4.382215	动物园	-0.062384
-4.859336	飞到	-0.062384
-4.859336	母权	-0.062384
-4.859336	抛起来	-0.062384
-4.257277	够	-0.062384
-4.081185	或有	-0.062384
-4.859336	按摩	-0.062384
-4.859336	吓唬	-0.062384
-4.558307	证明了	-0.062384
-4.859336	尖点	-0.062384
-4.859336	高射炮	-0.062384
-4.859336	老井	-0.062384
-4.859336	赛季	-0.062384
-4.859336	多美	-0.062384
-4.859336	权势	-0.062384
-4.859336	装上	-0.062384
-4.859336	藏	-0.062384
-4.859336	胶片	-0.062384
-4.081185	借口	-0.062384
-4.859336	可可茶	-0.062384
-4.859336	浴缸	-0.062384
-4.859336	土著人	-0.062384
-4.859336	停薪	-0.062384
-4.558307	那不	-0.062384
-4.859336	转为	-0.062384
-3.859336	取得	-0.187323
-4.382215	膨胀	-0.062384
-3.859336	程度	-0.335385
-2.961709	向	-0.222085
-4.014238	传统	-0.187323
-4.859336	踩刹车	-0.062384
-4.558307	化为	-0.062384
-4.859336	飞出	-0.062384
-4.558307	高叫	-0.062384
-4.859336	语义解释	-0.062384
-4.859336	阳台上	-0.062384
-4.382215	远离	-0.062384
-4.558307	取暖	-0.062384
-4.859336	纯净	-0.062384
-4.859336	太不	-0.062384
-4.859336	轻柔	-0.062384
-4.558307	管理员	-0.062384
-4.859336	糖蜜	-0.062384
-4.859336	遗体	-0.062384
-3.683245	书	-0.271644
-4.081185	残忍	-0.305422
-4.859336	可食	-0.062384
-4.859336	不离	-0.062384
-4.859336	弄丢	-0.062384
-4.859336	斯大林	-0.062384
-4.859336	来讲	-0.062384
-4.859336	有劲儿	-0.062384
-4.859336	惰性	-0.062384
-4.859336	诚意	-0.062384
-4.859336	增设	-0.062384
-4.160367	满了	-0.159294
-4.382215	蓄意	-0.062384
-4.859336	望	-0.062384
-4.859336	哈罗德	-0.062384
-4.859336	等国	-0.062384
-4.859336	分别	-0.062384
-4.859336	通出	-0.062384
-3.905094	进去	-0.539505
-4.859336	哂	-0.062384
-4.859336	发型	-0.062384
-4.160367	样	-0.062384
-4.558307	大臣	-0.062384
-4.859336	简陋	-0.062384
-4.382215	无能	-0.238475
-4.382215	只不过	-0.062384
-4.859336	说谎	-0.062384
-4.558307	皮	-0.062384
-4.859336	鲸鱼	-0.062384
-4.859336	柯	-0.062384
-4.257277	教义	-0.062384
-4.859336	懈怠	-0.062384
-4.859336	响亮	-0.062384
-4.859336	减速玻璃	-0.062384
-4.160367	检验	-0.062384
-3.956246	法语	-0.171529
-4.859336	具备	-0.062384
-4.859336	1864年	-0.062384
-4.257277	想象	-0.062384
-4.859336	手掌	-0.062384
-4.160367	款式	-0.141565
-4.558307	征税	-0.062384
-4.558307	受害者	-0.062384
-4.859336	探险队	-0.062384
-4.558307	集市	-0.062384
-4.859336	诱惑力	-0.062384
-4.558307	过来	-0.062384
-4.382215	男朋友	-0.159294
-4.558307	指着	-0.062384
-4.859336	倍受	-0.062384
-4.859336	不起眼	-0.062384
-4.859336	昏	-0.062384
-4.859336	绳圈	-0.062384
-4.558307	紧闭	-0.062384
-4.859336	半圆形	-0.062384
-4.859336	波及	-0.062384
-3.905094	烤	-0.238475
-4.859336	杀虫	-0.062384
-4.558307	均可	-0.062384
-4.859336	递交	-0.062384
-4.859336	班船	-0.062384
-3.558306	考虑	-0.205052
-4.081185	合	-0.141565
-4.859336	在审	-0.062384
-4.859336	每四年	-0.062384
-4.859336	烂泥	-0.062384
-4.382215	索取	-0.062384
-4.859336	市里	-0.062384
-4.558307	志愿	-0.062384
-4.382215	叛徒	-0.062384
-4.859336	每当	-0.062384
-4.859336	成双	-0.062384
-4.859336	太妃糖	-0.062384
-3.683245	放在	-0.084660
-2.473730	我们	-0.342204
-4.859336	出主意	-0.062384
-4.558307	搭档	-0.062384
-4.859336	小环	-0.062384
-4.257277	出外	-0.062384
-4.859336	劫案	-0.062384
-3.580583	住在	-0.062384
-4.859336	在使	-0.062384
-4.859336	特	-0.062384
-4.859336	当事人	-0.062384
-4.859336	政绩	-0.062384
-4.859336	勾	-0.062384
-3.780155	这是	-0.157868
-4.558307	骑车	-0.062384
-4.558307	沮丧	-0.363414
-4.558307	外科学	-0.062384
-4.859336	烟消云散	-0.062384
-4.859336	通事	-0.062384
-4.859336	顿开茅塞	-0.062384
-4.859336	一无所获	-0.062384
-4.859336	很浓	-0.062384
-4.859336	联想起	-0.062384
-4.859336	一秒钟	-0.062384
-4.859336	非法活动	-0.062384
-4.859336	满含	-0.062384
-4.859336	汉堡	-0.062384
-4.558307	太长	-0.062384
-4.859336	下巴	-0.062384
-4.859336	这个月	-0.062384
-4.859336	乡亲们	-0.062384
-4.859336	成长中	-0.062384
-4.859336	死不了	-0.062384
-4.859336	霜冻	-0.062384
-4.160367	从前	-0.062384
-4.160367	乡下	-0.062384
-4.859336	气喘吁吁	-0.062384
-4.859336	罗伊斯	-0.062384
-4.859336	确实在	-0.062384
-4.859336	飘着	-0.062384
-4.859336	作态	-0.062384
-4.859336	工整	-0.062384
-4.859336	龈脓肿	-0.062384
-4.859336	失掉	-0.062384
-4.859336	心胸	-0.062384
-4.859336	真对不起	-0.062384
-4.859336	某地	-0.062384
-4.859336	昏昏沉沉	-0.062384
-4.859336	已收	-0.062384
-4.859336	动过	-0.062384
-3.956246	混合	-0.120376
-4.382215	已用	-0.062384
-4.558307	政见	-0.062384
-4.558307	粗略地	-0.062384
-4.859336	迎着	-0.062384
-3.537117	法律	-0.202563
-4.859336	饮用水	-0.062384
-4.558307	止住	-0.062384
-4.859336	靠不住	-0.062384
-4.859336	砖石	-0.062384
-4.859336	震耳欲聋	-0.062384
-4.859336	冲向	-0.062384
-4.859336	泡沫	-0.062384
-4.558307	换车	-0.062384
-4.558307	各式各样	-0.062384
-4.859336	减得	-0.062384
-4.859336	打工	-0.062384
-4.859336	外场	-0.062384
-4.859336	左轮枪	-0.062384
-4.859336	真相大白	-0.062384
-4.859336	每一	-0.062384
-4.382215	成本	-0.062384
-4.859336	血流	-0.062384
-4.081185	牙齿	-0.208512
-4.859336	刮了	-0.062384
-3.713208	穿	-0.197083
-4.859336	养虫室	-0.062384
-4.859336	奏得	-0.062384
-4.859336	忘不了	-0.062384
-4.859336	上光剂	-0.062384
-4.859336	主修	-0.062384
-4.859336	开场	-0.062384
-4.014238	包装	-0.120376
-4.859336	避雨	-0.062384
-4.014238	回	-0.120376
-4.558307	一条路	-0.062384
-4.558307	四轮	-0.363414
-4.859336	大小便	-0.062384
-3.683245	固定	-0.090413
-4.859336	死讯	-0.062384
-4.859336	擤	-0.062384
-4.558307	点燃	-0.062384
-4.859336	尽力而为	-0.062384
-4.558307	各处	-0.062384
-4.859336	瞟	-0.062384
-4.859336	片刻	-0.062384
-4.558307	诱使	-0.062384
-4.859336	能跑	-0.062384
-4.859336	飞过	-0.062384
-4.859336	圈里	-0.062384
-4.558307	配给	-0.062384
-4.859336	希特勒	-0.062384
-4.859336	无以	-0.062384
-4.160367	好几年	-0.460324
-4.558307	透明	-0.062384
-4.558307	度量	-0.062384
-4.558307	星期四	-0.062384
-4.859336	一刻钟	-0.062384
-4.859336	一只猫	-0.062384
-3.479125	作	-0.062384
-4.382215	违背	-0.062384
-4.859336	素色	-0.062384
-4.558307	马达	-0.062384
-3.956246	礼物	-0.238475
-4.859336	水滴	-0.062384
-4.859336	不免	-0.062384
-4.859336	联营	-0.062384
-4.859336	还记得	-0.062384
-4.859336	烦乱	-0.062384
-4.859336	亲口	-0.062384
-4.859336	光照	-0.062384
-4.382215	回报	-0.062384
-4.859336	上天堂	-0.062384
-4.859336	慢性	-0.062384
-4.382215	直到	-0.094569
-3.713208	眼睛	-0.219992
-4.382215	开支	-0.238475
-4.859336	罗马帝国	-0.363414
-4.558307	售货员	-0.062384
-4.859336	会计	-0.062384
-4.859336	辩护者	-0.062384
-4.859336	想看看	-0.062384
-4.859336	佣仆	-0.062384
-4.859336	乌	-0.062384
-4.859336	到现在	-0.062384
-4.859336	推上	-0.062384
-4.859336	唐纳德	-0.062384
-4.859336	自告奋勇	-0.062384
-4.558307	会议上	-0.062384
-4.859336	典狱	-0.062384
-3.713208	总	-0.159294
-4.558307	又在	-0.062384
-4.859336	杂草	-0.062384
-3.279553	是个	-0.113537
-4.859336	没动	-0.062384
-4.859336	西洋棋	-0.062384
-2.330420	和	-0.136877
-4.859336	价格便宜	-0.062384
-4.558307	指给	-0.062384
-4.859336	大海	-0.062384
-4.160367	伊拉克	-0.062384
-4.859336	柱廊	-0.062384
-4.859336	和事佬	-0.062384
-4.558307	众所周知	-0.062384
-4.859336	墙边	-0.062384
-4.859336	潺潺声	-0.062384
-4.859336	释放出来	-0.062384
-4.859336	研究工作	-0.062384
-4.558307	尴尬	-0.062384
-4.382215	拥抱	-0.062384
-4.382215	尚未	-0.062384
-4.859336	序数	-0.062384
-4.859336	少女	-0.062384
-4.558307	幸灾乐祸	-0.062384
-4.558307	松弛	-0.062384
-4.257277	好转	-0.187323
-4.859336	计谋	-0.062384
-4.257277	摩托车	-0.062384
-4.382215	行走	-0.238475
-4.558307	方程	-0.062384
-4.859336	胚芽	-0.062384
-4.859336	灵活	-0.062384
-4.859336	掉过头来	-0.062384
-4.859336	教师应	-0.062384
-4.382215	收藏	-0.062384
-3.713208	妻子	-0.183428
-3.558306	美元	-0.501717
-4.257277	男	-0.062384
-4.558307	钮	-0.062384
-4.859336	精义	-0.062384
-4.382215	花园里	-0.062384
-3.367975	出	-0.173535
-4.558307	好多	-0.062384
-2.783790	从	-0.112602
-4.257277	足球队	-0.062384
-4.859336	解	-0.062384
-4.558307	小林	-0.062384
-4.859336	不同凡响	-0.062384
-4.558307	住址	-0.363414
-4.859336	狄克	-0.062384
-4.382215	很晚	-0.062384
-4.859336	看得出	-0.062384
-4.859336	同住	-0.062384
-4.859336	雕塑家	-0.062384
-4.382215	两者	-0.062384
-4.859336	入会	-0.062384
-4.558307	讲起来	-0.062384
-4.160367	函	-0.120376
-4.382215	顺便	-0.062384
-4.859336	阑尾炎	-0.062384
-4.859336	开水	-0.062384
-4.558307	10％	-0.363414
-4.558307	长成	-0.062384
-4.859336	元钱	-0.062384
-4.859336	壁上	-0.062384
-4.859336	打孔	-0.062384
-4.558307	不让	-0.062384
-4.859336	打电报	-0.062384
-4.382215	课堂	-0.238475
-4.859336	仍是	-0.062384
-4.160367	刚刚	-0.062384
-4.859336	申斥	-0.062384
-4.859336	阴谋诡计	-0.062384
-4.859336	斯特雷特	-0.062384
-4.257277	海	-0.062384
-4.558307	增加了	-0.062384
-4.859336	噩耗	-0.062384
-4.558307	砖	-0.062384
-4.859336	厄	-0.062384
-4.859336	群岛	-0.062384
-4.859336	烦躁	-0.062384
-4.859336	享年	-0.062384
-3.956246	企图	-0.062384
-4.859336	传下来	-0.062384
-4.558307	不同于	-0.062384
-4.859336	接枝	-0.062384
-3.327857	其	-0.091673
-4.859336	子午线	-0.062384
-4.859336	相遇	-0.062384
-4.558307	要不	-0.062384
-4.859336	做人	-0.062384
-3.956246	议会	-0.062384
-4.859336	326	-0.062384
-4.558307	仿佛	-0.062384
-4.859336	便无权	-0.062384
-4.859336	单词表	-0.062384
-4.081185	陷入	-0.062384
-4.859336	怡然自得	-0.062384
-4.859336	底片	-0.062384
-4.859336	排字	-0.062384
-4.558307	平房	-0.062384
-4.382215	忘	-0.238475
-3.905094	地址	-0.238475
-4.859336	裸	-0.062384
-4.382215	寻觅	-0.238475
-4.859336	某某人	-0.062384
-4.558307	原路	-0.062384
-4.382215	也不能	-0.238475
-4.382215	疑问	-0.539505
-4.859336	着风	-0.062384
-4.859336	热衷	-0.062384
-4.859336	音质	-0.062384
-4.859336	再见面	-0.062384
-4.859336	阿特米	-0.062384
-4.859336	套上	-0.062384
-4.859336	通过讨论	-0.062384
-4.558307	可言	-0.363414
-4.859336	拖地板	-0.062384
-4.859336	种茶	-0.062384
-4.859336	上山	-0.062384
-4.859336	不清	-0.062384
-4.382215	流言蜚语	-0.062384
-4.558307	吩咐	-0.062384
-4.859336	已久	-0.062384
-4.859336	经度	-0.062384
-4.859336	牙膏	-0.062384
-4.859336	同党	-0.062384
-3.905094	确实	-0.062384
-4.558307	商	-0.062384
-4.859336	休眠火山	-0.062384
-4.558307	生而	-0.062384
-4.859336	备用	-0.062384
-4.859336	究	-0.062384
-4.859336	自吹	-0.062384
-4.859336	呜咽	-0.062384
-4.859336	残酷无情	-0.062384
-4.859336	视听	-0.062384
-4.859336	税	-0.062384
-3.956246	正常	-0.159294
-4.558307	扶	-0.062384
-4.859336	洗不掉	-0.062384
-3.628888	解释	-0.146705
-4.859336	奉送	-0.062384
-4.558307	冠军	-0.062384
-4.859336	猎取	-0.062384
-4.859336	盗用公款	-0.062384
-4.859336	哄动	-0.062384
-4.859336	结合起来	-0.062384
-4.859336	有关方面	-0.062384
-4.382215	骑士	-0.238475
-4.859336	尘埃	-0.062384
-3.143333	也	-0.087568
-3.628888	晚上	-0.147814
-4.382215	四个	-0.062384
-4.558307	贵得	-0.062384
-4.859336	朝圣者	-0.062384
-4.859336	万福	-0.062384
-4.859336	深更半夜	-0.062384
-4.859336	沉浸在	-0.062384
-4.558307	请她	-0.062384
-4.859336	嗨	-0.363414
-4.558307	慌张	-0.062384
-4.382215	被打	-0.062384
-4.558307	真不知道	-0.062384
-4.859336	发笑	-0.062384
-4.558307	索	-0.062384
-4.859336	鞋带	-0.062384
-4.859336	送个	-0.062384
-4.382215	机	-0.062384
-4.859336	美食	-0.062384
-4.558307	办事	-0.062384
-3.780155	弄	-0.062384
-4.859336	熔化	-0.062384
-4.859336	多走	-0.062384
-4.859336	碳素钢	-0.062384
-4.859336	荷兰	-0.062384
-4.859336	提名	-0.062384
-4.558307	小号	-0.062384
-4.859336	讲授	-0.062384
-4.257277	粗鲁	-0.062384
-4.859336	倾倒	-0.062384
-4.859336	那般	-0.062384
-4.859336	泛	-0.062384
-4.382215	倾听	-0.062384
-4.257277	母	-0.062384
-4.859336	园	-0.062384
-3.412179	了吗	-1.524782
-4.859336	三万五千	-0.062384
-4.382215	除掉	-0.238475
-4.859336	慌不择路	-0.062384
-4.859336	缠结	-0.363414
-4.859336	出丑	-0.062384
-4.859336	重建	-0.062384
-4.859336	房价	-0.062384
-4.382215	摄影	-0.062384
-4.558307	该城	-0.062384
-4.859336	集了	-0.062384
-4.558307	东西连	-0.062384
-4.160367	地位	-0.062384
-4.859336	在在	-0.062384
-4.859336	在后面	-0.062384
-4.160367	海洋	-0.159294
-4.859336	一整夜	-0.062384
-4.859336	输不起	-0.062384
-4.859336	一宗	-0.062384
-4.859336	鸟类	-0.062384
-4.859336	爱尔兰队	-0.062384
-4.859336	拖到	-0.363414
-3.604064	问	-0.248021
-4.382215	情况下	-0.062384
-3.327857	正在	-0.095177
-4.859336	起着	-0.062384
-4.859336	萨	-0.062384
-4.558307	不能不	-0.062384
-4.859336	那也	-0.062384
-3.558306	令人	-0.100173
-4.014238	不必	-0.062384
-4.859336	演了	-0.062384
-4.558307	故	-0.062384
-4.014238	互相	-0.062384
-4.558307	在有	-0.062384
-4.859336	行径	-0.062384
-4.859336	赤道	-0.062384
-4.382215	朋友们	-0.062384
-4.859336	别去	-0.062384
-3.956246	那只	-0.062384
-4.859336	闺秀	-0.062384
-4.859336	拍了	-0.062384
-4.558307	已是	-0.062384
-4.859336	募捐	-0.062384
-4.257277	可在	-0.062384
-4.382215	革命	-0.238475
-4.558307	可惜	-0.062384
-4.859336	哈佛	-0.062384
-4.859336	辞上	-0.062384
-4.859336	却把	-0.062384
-4.859336	联合会	-0.062384
-4.859336	苏醒过来	-0.062384
-4.859336	高保真	-0.062384
-4.558307	红桃	-0.062384
-4.558307	认可	-0.062384
-4.859336	电容	-0.062384
-4.859336	日内	-0.062384
-4.859336	脸色	-0.062384
-4.859336	不经	-0.062384
-4.859336	荒废	-0.062384
-4.257277	重物	-0.187323
-4.859336	简则	-0.062384
-4.558307	倒闭	-0.363414
-4.558307	买书	-0.062384
-4.382215	无聊	-0.062384
-3.745393	坚持	-0.094569
-4.859336	很挑剔	-0.062384
-4.859336	修齐	-0.062384
-4.859336	葬礼	-0.062384
-4.859336	希腊人	-0.062384
-4.859336	略感	-0.062384
-4.859336	靠得住	-0.062384
-4.859336	公正地	-0.062384
-4.859336	驱逐出境	-0.062384
-4.160367	两种	-0.141565
-4.859336	逃之夭夭	-0.062384
-4.257277	跑道	-0.062384
-4.859336	号旗	-0.062384
-4.859336	迟于	-0.062384
-4.859336	花絮	-0.062384
-4.859336	惯性	-0.062384
-4.859336	更强	-0.062384
-4.859336	牵涉到	-0.062384
-4.558307	猜测	-0.062384
-4.558307	月前	-0.062384
-4.859336	来客	-0.062384
-4.257277	字典	-0.187323
-4.382215	气冲	-0.539505
-4.859336	bed	-0.062384
-4.859336	未受惩罚	-0.062384
-4.859336	二百人	-0.062384
-4.859336	从那里	-0.062384
-3.558306	一只	-0.062384
-4.859336	社会上	-0.062384
-4.859336	漏	-0.062384
-3.956246	投票	-0.187323
-4.859336	搜罗	-0.062384
-4.558307	就业	-0.062384
-4.859336	闪避	-0.062384
-4.859336	乌云	-0.062384
-4.859336	肥育	-0.062384
-4.558307	死后	-0.062384
-4.558307	忍不住	-0.062384
-4.859336	一连	-0.062384
-4.558307	形态	-0.062384
-4.859336	合伙	-0.062384
-4.859336	连在一起	-0.062384
-4.257277	桌上	-0.187323
-4.859336	大点	-0.062384
-3.905094	能把	-0.149534
-4.558307	伤	-0.062384
-4.859336	填字	-0.062384
-4.558307	口令	-0.062384
-4.859336	大开	-0.062384
-4.558307	手臂	-0.062384
-4.859336	抬高	-0.062384
-4.859336	拉得	-0.062384
-4.558307	掷	-0.062384
-4.859336	急剧	-0.062384
-4.558307	摔了一跤	-0.062384
-4.859336	在前部	-0.062384
-4.859336	没出	-0.062384
-4.859336	赊购	-0.062384
-3.780155	新闻	-0.134935
-4.859336	吃不准	-0.062384
-4.859336	为对	-0.062384
-3.956246	欺骗	-0.664444
-4.859336	光洁度	-0.062384
-4.859336	新泽西州	-0.062384
-4.859336	缩小成	-0.062384
-4.859336	传闻证据	-0.062384
-4.382215	绘画	-0.062384
-4.859336	彻底地	-0.062384
-4.859336	嘎	-0.062384
-4.859336	轻喜剧	-0.062384
-4.859336	拖长	-0.062384
-4.558307	高雅	-0.363414
-3.859336	破坏	-0.238475
-4.558307	跑步	-0.062384
-4.859336	7月	-0.062384
-4.558307	补充	-0.062384
-4.859336	接踵而来	-0.062384
-4.859336	民族主义	-0.062384
-4.859336	变薄	-0.062384
-4.558307	非常重要	-0.062384
-4.382215	最有	-0.062384
-4.859336	贼	-0.062384
-4.859336	举动	-0.062384
-4.014238	后面	-0.238475
-4.859336	疖	-0.062384
-4.859336	菜叶	-0.062384
-4.558307	细微	-0.062384
-4.859336	越多	-0.062384
-4.859336	只需	-0.062384
-4.859336	敬佩	-0.062384
-4.859336	耐力	-0.062384
-4.859336	作笔记	-0.062384
-4.081185	阅读	-0.141565
-4.257277	难题	-0.062384
-4.859336	民间	-0.062384
-4.859336	残废	-0.062384
-3.956246	液体	-0.113537
-4.859336	整流	-0.062384
-4.859336	迈阿密	-0.062384
-4.558307	资本家	-0.062384
-4.859336	流	-0.062384
-4.859336	短少	-0.062384
-4.558307	掉下	-0.062384
-4.382215	在等	-0.062384
-4.558307	空袭	-0.062384
-4.859336	走下坡路	-0.062384
-4.558307	泡影	-0.363414
-4.160367	提取	-0.159294
-4.859336	羚羊皮	-0.062384
-3.817944	做了	-0.062384
-3.956246	留下	-0.120376
-4.859336	能飞	-0.062384
-4.859336	灰暗	-0.062384
-4.859336	桌面	-0.062384
-4.859336	总称	-0.062384
-4.558307	以期	-0.062384
-4.859336	秀才	-0.062384
-4.160367	告知	-0.062384
-4.160367	激烈	-0.284233
-4.859336	埋伏	-0.062384
-4.859336	也行	-0.062384
-4.859336	以牙还牙	-0.062384
-4.382215	取悦	-0.062384
-4.859336	男演员	-0.062384
-4.859336	腰身	-0.062384
-4.160367	尊重	-0.062384
-4.859336	好吃	-0.062384
-4.382215	服务员	-0.062384
-4.859336	书房	-0.062384
-4.859336	喘息	-0.062384
-4.859336	卫报	-0.062384
-4.859336	4点	-0.062384
-4.558307	圆形	-0.062384
-4.859336	聚焦	-0.062384
-4.859336	用旧	-0.062384
-4.859336	雕刻家	-0.062384
-4.558307	倾覆	-0.363414
-4.859336	破坏者	-0.062384
-4.859336	和经	-0.062384
-4.859336	多半会	-0.062384
-4.859336	就进	-0.062384
-4.558307	起诉	-0.062384
-4.859336	一切事物	-0.062384
-4.859336	逃过	-0.062384
-4.859336	减震	-0.062384
-4.859336	但在	-0.062384
-4.558307	应该在	-0.062384
-4.558307	换成	-0.062384
-4.859336	别校	-0.062384
-4.014238	季节	-0.113537
-3.604064	利用	-0.087208
-4.160367	著称	-0.159294
-4.859336	大气	-0.062384
-4.558307	简朴	-0.363414
-4.081185	所需	-0.363414
-4.558307	都谈	-0.062384
-4.859336	铁矛	-0.062384
-4.859336	起作用	-0.062384
-4.859336	为例	-0.062384
-4.859336	绯红	-0.062384
-4.257277	沿着	-0.062384
-4.859336	科摩罗	-0.062384
-4.859336	多雾	-0.062384
-4.859336	唐朝	-0.062384
-4.859336	同夥	-0.062384
-4.160367	注意到	-0.062384
-4.859336	互联网	-0.062384
-4.558307	高兴起来	-0.363414
-4.859336	女作家	-0.062384
-4.859336	带骨	-0.062384
-4.382215	一英里	-0.062384
-4.859336	打点	-0.062384
-4.859336	都懂	-0.062384
-4.859336	勒韦	-0.062384
-4.859336	信徒	-0.062384
-4.859336	梳子	-0.062384
-4.081185	办	-0.062384
-3.745393	表达	-0.120376
-4.257277	维持	-0.062384
-3.817944	是由	-0.062384
-4.859336	要尽	-0.062384
-4.859336	没有着落	-0.062384
-4.859336	嘉宾	-0.062384
-4.558307	温柔	-0.062384
-4.859336	长者	-0.062384
-4.859336	脚趾甲	-0.062384
-4.257277	怀着	-0.062384
-4.859336	革命事业	-0.062384
-4.859336	请拿	-0.062384
-4.859336	自然会	-0.062384
-3.427973	需要	-0.126502
-4.859336	报文	-0.062384
-4.859336	病变	-0.062384
-4.859336	或非	-0.062384
-4.859336	大代表	-0.062384
-4.859336	各种事情	-0.062384
-4.859336	发展能力	-0.062384
-4.257277	搬运	-0.062384
-4.257277	隔开	-0.062384
-4.859336	继	-0.062384
-4.859336	阐述	-0.062384
-4.558307	上气不接	-0.363414
-4.859336	重用	-0.062384
-4.859336	十五分	-0.062384
-4.859336	憎恶	-0.062384
-4.859336	名额	-0.062384
-4.859336	计算网络	-0.062384
-4.859336	钢轨	-0.062384
-4.859336	受够了	-0.062384
-4.558307	会做	-0.062384
-4.859336	乏	-0.062384
-4.859336	不睡	-0.062384
-4.859336	用得	-0.062384
-4.859336	五十秒	-0.062384
-4.014238	取消	-0.208512
-4.558307	纠缠	-0.363414
-4.859336	净利	-0.062384
-4.859336	四英里	-0.062384
-4.859336	五年计划	-0.062384
-4.382215	就行了	-0.539505
-4.160367	数	-0.062384
-4.859336	闹醒	-0.062384
-4.859336	苍	-0.062384
-4.382215	金钱	-0.062384
-4.558307	发火	-0.363414
-4.859336	可喜	-0.062384
-4.160367	谋杀	-0.062384
-4.382215	一端	-0.062384
-4.859336	变干	-0.062384
-4.257277	轿车	-0.062384
-4.859336	小有	-0.062384
-4.859336	上班族	-0.062384
-4.859336	低收入者	-0.062384
-4.257277	博物馆	-0.062384
-4.859336	土	-0.062384
-4.859336	德语	-0.062384
-4.859336	正体字	-0.062384
-4.859336	行军	-0.062384
-4.859336	吹灭	-0.062384
-2.016104	或	-0.135426
-4.257277	顽固	-0.062384
-3.905094	城镇	-0.238475
-4.859336	发往	-0.062384
-4.558307	商议	-0.062384
-4.859336	弯着腰	-0.062384
-4.382215	这一次	-0.062384
-4.558307	当地人	-0.062384
-4.558307	疲倦了	-0.363414
-4.859336	决斗	-0.062384
-4.859336	罗纹	-0.062384
-4.859336	通衢	-0.062384
-4.859336	黑烟	-0.062384
-4.859336	眼力	-0.062384
-4.558307	尚在	-0.062384
-4.859336	分肥	-0.062384
-4.558307	可不可以	-0.062384
-4.859336	奥克兰	-0.062384
-4.558307	近年来	-0.062384
-4.257277	干部	-0.187323
-4.859336	庙	-0.062384
-4.257277	通往	-0.062384
-4.859336	行了	-0.062384
-4.859336	反应力	-0.062384
-4.859336	面条	-0.062384
-4.382215	衣物	-0.062384
-4.859336	在附近	-0.062384
-4.859336	船体	-0.062384
-4.859336	馆里	-0.062384
-4.859336	神色	-0.062384
-4.014238	警方	-0.062384
-4.859336	1000元	-0.062384
-4.859336	兹	-0.062384
-4.558307	爱因斯坦	-0.238475
-4.257277	并且	-0.062384
-4.558307	毯	-0.062384
-3.859336	单位	-0.062384
-4.859336	起跳	-0.062384
-4.558307	超越	-0.363414
-4.859336	代表大会	-0.062384
-4.558307	厨房里	-0.062384
-4.859336	乙烯基	-0.062384
-4.859336	利可图	-0.062384
-4.257277	小孩子	-0.238475
-4.859336	拿来	-0.062384
-4.558307	壳	-0.062384
-3.905094	鸟	-0.159294
-4.859336	窥视	-0.062384
-3.817944	那儿	-0.187323
-4.558307	起火	-0.062384
-4.859336	裂缝	-0.062384
-4.859336	该书	-0.062384
-4.859336	记不清	-0.062384
-4.859336	回想	-0.062384
-4.859336	裁开	-0.062384
-4.382215	议论	-0.062384
-4.859336	闹得	-0.062384
-4.859336	烧尽	-0.062384
-4.859336	文	-0.062384
-4.859336	抗议书	-0.062384
-4.257277	这对	-0.187323
-4.859336	虚张声势	-0.062384
-4.859336	常数	-0.062384
-4.014238	插入	-0.062384
-4.859336	萧伯纳	-0.062384
-4.859336	供人	-0.062384
-4.558307	杂质	-0.062384
-4.558307	习惯上	-0.062384
-4.257277	胶	-0.062384
-4.257277	摔倒	-0.062384
-4.859336	米克	-0.062384
-4.859336	占地面	-0.062384
-4.859336	高加索	-0.062384
-4.859336	艺人	-0.062384
-4.859336	栓	-0.062384
-3.497609	快	-0.331229
-4.558307	组成部分	-0.062384
-4.859336	现代英语	-0.062384
-4.558307	离家	-0.062384
-4.859336	没趣	-0.062384
-4.859336	试做	-0.062384
-4.382215	草率	-0.062384
-4.859336	等人	-0.062384
-4.859336	上下文	-0.062384
-4.558307	都爱	-0.062384
-4.257277	广场	-0.363414
-4.859336	拥护者	-0.062384
-4.859336	全套	-0.062384
-4.859336	阅历	-0.062384
-4.859336	不辨	-0.062384
-4.160367	儿	-0.062384
-4.859336	十月革命	-0.062384
-4.859336	毁损	-0.062384
-4.558307	测试	-0.062384
-4.859336	能以	-0.062384
-4.859336	对不对	-0.363414
-4.859336	不在于	-0.062384
-4.859336	扎	-0.062384
-4.859336	要按	-0.062384
-4.558307	记忆力	-0.062384
-4.859336	拼得	-0.062384
-4.859336	大丈夫	-0.062384
-4.859336	常会	-0.062384
-4.382215	游	-0.062384
-4.859336	话音	-0.062384
-4.859336	委托方	-0.062384
-4.257277	键盘	-0.187323
-4.382215	英格兰	-0.187323
-4.558307	本人	-0.062384
-4.081185	有用	-0.238475
-4.558307	印度洋	-0.062384
-4.859336	尔逊	-0.062384
-4.859336	大写字母	-0.062384
-4.859336	勋章	-0.062384
-4.859336	夸口	-0.062384
-4.859336	01	-0.062384
-4.859336	概述	-0.062384
-4.859336	朱利安	-0.062384
-3.628888	它们	-0.165046
-4.859336	工作方法	-0.062384
-3.745393	教育	-0.225111
-4.382215	惹麻烦	-0.238475
-3.444363	房子	-0.178890
-4.859336	芳香	-0.062384
-4.160367	整理	-0.141565
-4.558307	刺耳	-0.062384
-4.859336	投资人	-0.062384
-4.382215	敢	-0.062384
-4.859336	若干	-0.062384
-4.558307	远非	-0.062384
-4.859336	怠慢	-0.062384
-4.859336	环节	-0.062384
-3.905094	避免	-0.062384
-4.859336	纳闷	-0.062384
-4.859336	增至	-0.062384
-4.859336	马场	-0.062384
-4.558307	这不	-0.062384
-4.859336	作用于	-0.062384
-4.558307	巡回	-0.062384
-4.859336	混成曲	-0.062384
-4.859336	出生于	-0.062384
-4.859336	说不准	-0.062384
-4.859336	镇定	-0.062384
-4.859336	已将	-0.062384
-4.382215	梳	-0.238475
-4.558307	把家	-0.062384
-4.859336	并行	-0.062384
-4.859336	光信号	-0.062384
-4.382215	买方	-0.062384
-4.859336	赶上去	-0.062384
-2.697968	来	-0.254270
-4.558307	辞去	-0.539505
-4.382215	或是	-0.062384
-4.859336	大杂烩	-0.062384
-4.859336	强硬	-0.062384
-4.859336	搬进	-0.062384
-4.859336	一朵	-0.062384
-4.859336	快去	-0.062384
-4.859336	哈哈大笑	-0.062384
-4.859336	大瀑布	-0.062384
-4.081185	成绩	-0.149534
-3.655216	父母	-0.159294
-4.558307	一点也没	-0.062384
-4.859336	心寒	-0.062384
-4.558307	弃权	-0.062384
-4.382215	雄辩	-0.539505
-4.859336	花瓶	-0.062384
-4.257277	至少	-0.062384
-4.859336	种方法	-0.062384
-4.859336	弹	-0.062384
-4.081185	竞赛	-0.141565
-4.558307	厅	-0.363414
-4.859336	有精神病	-0.062384
-4.859336	弄些	-0.062384
-4.558307	十字架	-0.062384
-4.859336	卡莱斯	-0.062384
-4.859336	嗜毒	-0.062384
-4.382215	顺风	-0.187323
-4.859336	阻挠	-0.062384
-4.859336	流离失所	-0.062384
-4.859336	随口	-0.062384
-4.859336	八月	-0.062384
-4.859336	文书	-0.062384
-3.745393	物质	-0.110689
-4.859336	亡	-0.062384
-4.558307	算错	-0.062384
-4.859336	全民	-0.062384
-4.859336	葱	-0.062384
-4.257277	月	-0.305422
-4.859336	票面	-0.062384
-4.859336	切割刀	-0.062384
-4.558307	大狗	-0.062384
-4.859336	鸟群	-0.062384
-4.859336	在各方面	-0.062384
-4.859336	赛中	-0.062384
-4.081185	一大笔	-0.062384
-4.859336	跳下去	-0.062384
-3.461396	还	-0.084103
-4.859336	讨还	-0.062384
-3.713208	之	-0.062384
-4.859336	弹射	-0.062384
-4.257277	雇主	-0.062384
-4.558307	纤细	-0.363414
-4.859336	被毁	-0.062384
-4.382215	趋势	-0.238475
-4.859336	印出	-0.062384
-4.859336	1905年	-0.062384
-4.859336	投下	-0.062384
-4.859336	冒火	-0.062384
-4.859336	散文	-0.062384
-4.859336	不论什么	-0.062384
-4.859336	绷紧	-0.062384
-4.382215	暗杀	-0.238475
-4.859336	长辈	-0.062384
-4.382215	枯萎	-0.062384
-4.859336	不安宁	-0.062384
-4.859336	半点	-0.062384
-4.859336	紧追	-0.062384
-4.859336	教过	-0.062384
-3.537117	发出	-0.174358
-4.859336	卡带	-0.062384
-4.859336	势将	-0.062384
-4.859336	针刺	-0.062384
-4.558307	胶卷	-0.062384
-4.859336	从实	-0.062384
-4.160367	现场	-0.141565
-4.859336	麽	-0.062384
-3.956246	次	-0.062384
-4.859336	傍晚时	-0.062384
-4.558307	病因	-0.363414
-4.859336	起见	-0.062384
-3.745393	设计	-0.276264
-4.859336	换取	-0.062384
-4.859336	比率	-0.062384
-4.859336	增长年	-0.062384
-4.859336	奥利维亚	-0.062384
-4.382215	电源	-0.062384
-3.683245	俱乐部	-0.292833
-4.859336	海洛德	-0.062384
-4.859336	蛀	-0.062384
-4.558307	说说	-0.062384
-4.558307	而成	-0.363414
-4.859336	在演	-0.062384
-4.382215	三天	-0.539505
-4.382215	膝盖	-0.062384
-4.859336	非利士	-0.062384
-4.859336	名胜古迹	-0.062384
-4.859336	练琴	-0.062384
-4.257277	剧场	-0.062384
-4.382215	我向	-0.159294
-3.859336	空气	-0.092347
-4.859336	木制	-0.062384
-4.558307	饭厅	-0.062384
-4.257277	民主	-0.062384
-4.859336	一堂	-0.062384
-4.859336	决不是	-0.062384
-4.859336	这人	-0.062384
-4.859336	电磁波	-0.062384
-4.859336	森林法	-0.062384
-4.859336	静静地	-0.062384
-4.859336	自然损耗	-0.062384
-3.956246	写了	-0.113537
-4.859336	食品店	-0.062384
-4.859336	副作用	-0.062384
-4.859336	睁不开	-0.062384
-4.859336	溢出	-0.062384
-4.859336	这回事	-0.062384
-4.558307	桥牌	-0.062384
-4.859336	断裂	-0.062384
-4.859336	转调	-0.062384
-4.859336	药草	-0.062384
-4.859336	基督教徒	-0.062384
-4.859336	一早晨	-0.062384
-4.257277	中央	-0.062384
-4.859336	就再	-0.062384
-4.859336	总督	-0.062384
-4.081185	使之	-0.062384
-4.160367	宿命论	-0.460324
-4.257277	浪费	-0.363414
-4.859336	进程	-0.062384
-4.859336	旧时	-0.062384
-4.859336	大花	-0.062384
-4.558307	鸡皮疙瘩	-0.363414
-4.859336	每磅	-0.062384
-4.859336	发胖	-0.062384
-4.859336	钱可通神	-0.062384
-4.558307	吉尔	-0.062384
-4.257277	冷静	-0.284233
-4.558307	出版物	-0.062384
-4.859336	纳税	-0.062384
-4.081185	脸	-0.100173
-4.859336	同房间	-0.062384
-4.859336	沿途	-0.062384
-4.160367	停下来	-0.460324
-4.382215	宣誓	-0.062384
-4.859336	太忙	-0.062384
-4.558307	口子	-0.062384
-4.081185	下去	-0.606452
-4.859336	沐浴	-0.062384
-4.859336	冲撞力	-0.062384
-4.859336	毒气	-0.062384
-4.382215	牌上	-0.062384
-4.859336	人才	-0.062384
-4.859336	淡季	-0.062384
-3.412179	打	-0.144571
-4.859336	等高线	-0.062384
-3.683245	某些	-0.085865
-4.382215	隆起	-0.238475
-4.859336	开到	-0.062384
-4.558307	争夺	-0.062384
-4.160367	在外面	-0.159294
-4.859336	自由思想	-0.062384
-3.905094	参观	-0.113537
-4.382215	锚	-0.062384
-4.382215	要人	-0.062384
-4.859336	喽	-0.062384
-4.859336	席位	-0.062384
-4.859336	上课时	-0.062384
-3.956246	判决	-0.062384
-4.558307	耐心	-0.062384
-4.257277	过夜	-0.363414
-4.859336	秋耕	-0.062384
-3.956246	的确	-0.120376
-4.859336	理发师	-0.062384
-4.859336	下雪	-0.062384
-4.859336	缓	-0.062384
-4.859336	订约	-0.062384
-4.160367	一步	-0.284233
-4.859336	没啥	-0.062384
-4.859336	会呢	-0.062384
-4.859336	各就各位	-0.062384
-4.859336	翻查	-0.062384
-4.257277	财富	-0.129331
-4.859336	散布	-0.062384
-4.859336	法兰克福	-0.062384
-4.859336	决议案	-0.062384
-4.558307	夜里	-0.062384
-3.859336	足球	-0.404807
-4.859336	腿上	-0.062384
-4.382215	无赖	-0.238475
-4.382215	干杯	-0.363414
-4.859336	取出来	-0.062384
-4.859336	耍弄	-0.062384
-4.859336	棒球赛	-0.062384
-4.160367	阶层	-0.284233
-4.558307	日元	-0.062384
-4.859336	右侧	-0.062384
-4.859336	确凿	-0.062384
-4.382215	逗留	-0.539505
-4.558307	推断出	-0.062384
-3.956246	简	-0.062384
-4.558307	华丽	-0.062384
-4.859336	尖酸	-0.062384
-4.558307	直率	-0.062384
-4.859336	都由	-0.062384
-4.859336	所希望	-0.062384
-4.014238	看着	-0.103777
-4.859336	十字形	-0.062384
-4.859336	竟让	-0.062384
-4.257277	可能性	-0.062384
-4.859336	臭味	-0.062384
-4.859336	不赞成	-0.062384
-4.859336	果肉	-0.062384
-4.382215	学说	-0.062384
-4.558307	为其	-0.062384
-4.558307	深处	-0.062384
-4.558307	殉教者	-0.062384
-3.817944	连	-0.082587
-4.859336	学用	-0.062384
-4.558307	循环	-0.062384
-4.859336	学位	-0.062384
-4.558307	歌星	-0.062384
-4.859336	才去	-0.062384
-4.859336	朝前	-0.062384
-3.340822	等	-0.156289
-4.859336	数第一	-0.062384
-4.859336	网球赛	-0.062384
-4.859336	拳台	-0.062384
-4.859336	警察局	-0.062384
-4.558307	西装	-0.062384
-4.558307	议程	-0.062384
-4.859336	端庄	-0.062384
-4.160367	保住	-0.062384
-4.859336	嘶嘶声	-0.062384
-4.160367	西	-0.062384
-4.859336	景象	-0.284233
-4.859336	之声	-0.062384
-4.382215	小山	-0.062384
-4.558307	富	-0.238475
-4.558307	正派	-0.062384
-4.859336	dip	-0.062384
-4.257277	作好	-0.062384
-4.558307	剧中	-0.062384
-4.859336	春季	-0.062384
-4.859336	新生活	-0.062384
-4.558307	明	-0.062384
-3.956246	能否	-0.187323
-2.530957	把	-0.308414
-2.996014	将	-0.108896
-4.558307	尖锐	-0.363414
-4.014238	娱乐	-0.129331
-4.859336	在作	-0.062384
-4.558307	礼品	-0.062384
-4.859336	仰	-0.062384
-4.859336	反复无常	-0.062384
-4.859336	危害	-0.062384
-4.558307	买点儿	-0.062384
-4.859336	水箱	-0.062384
-4.558307	稍微	-0.062384
-4.859336	不分	-0.062384
-4.382215	物理	-0.062384
-3.628888	处	-0.195010
-4.859336	竟有	-0.062384
-4.558307	落入	-0.062384
-4.859336	兴高采烈	-0.062384
-4.382215	脚踝	-0.062384
-4.859336	于此	-0.062384
-4.859336	暴风	-0.062384
-4.859336	白糖	-0.062384
-4.859336	太空船	-0.062384
-4.558307	肉体	-0.062384
-4.859336	锯	-0.062384
-4.859336	该岛	-0.062384
-4.558307	图形	-0.062384
-4.382215	敌军	-0.062384
-4.859336	调料	-0.062384
-4.558307	街角	-0.062384
-4.859336	每项	-0.062384
-4.859336	总比	-0.062384
-4.859336	显示文件	-0.062384
-4.859336	162	-0.062384
-4.558307	生意人	-0.062384
-4.859336	擦了	-0.062384
-4.859336	二氧化碳	-0.062384
-4.382215	干涉	-0.062384
-4.558307	房地产	-0.062384
-4.558307	匆忙	-0.187323
-4.859336	扫兴	-0.062384
-4.382215	套装	-0.062384
-4.382215	付帐	-0.238475
-4.382215	两张	-0.062384
-4.558307	同类	-0.062384
-4.859336	面色	-0.062384
-4.382215	一整天	-0.062384
-4.382215	受雇	-0.062384
-4.859336	不等式	-0.062384
-4.859336	1200	-0.062384
-4.859336	曼谷	-0.062384
-4.859336	要价	-0.062384
-4.859336	全力	-0.062384
-4.859336	二千人	-0.062384
-4.859336	篱笆	-0.062384
-4.558307	参赛者	-0.062384
-4.859336	赞成票	-0.062384
-4.382215	鼻子	-0.062384
-4.859336	否则	-0.149534
-4.558307	高山	-0.062384
-4.558307	葡萄牙	-0.062384
-4.859336	端上	-0.062384
-4.859336	不受限制	-0.062384
-4.859336	东京	-0.062384
-4.382215	逃走	-0.238475
-4.859336	一市镇	-0.062384
-4.859336	信誉	-0.062384
-4.382215	图表	-0.062384
-4.382215	一匹	-0.062384
-4.558307	如今	-0.062384
-4.859336	诚信	-0.062384
-4.859336	根号	-0.062384
-4.859336	混有	-0.062384
-4.382215	连衣裙	-0.062384
-4.859336	毫无疑问	-0.062384
-4.859336	提不出	-0.062384
-4.859336	椅背	-0.062384
-4.160367	很小	-0.159294
-4.257277	赛	-0.062384
-4.859336	增减	-0.062384
-4.081185	墙	-0.141565
-4.859336	他乡	-0.062384
-4.558307	当场	-0.062384
-4.859336	暂无	-0.062384
-4.859336	上天	-0.062384
-4.081185	拉	-0.062384
-4.558307	500	-0.062384
-4.859336	文迪	-0.062384
-4.859336	窑洞	-0.062384
-4.558307	拿起	-0.062384
-4.859336	号召	-0.062384
-4.257277	几小时	-0.062384
-4.859336	接管	-0.062384
-4.382215	抵	-0.062384
-4.859336	游玩	-0.062384
-4.859336	行为不端	-0.062384
-4.859336	拖地	-0.062384
-4.859336	到场	-0.062384
-4.160367	受到了	-0.062384
-4.081185	换	-0.062384
-4.081185	英尺	-0.062384
-4.859336	胡诌	-0.062384
-4.859336	沈没	-0.062384
-4.859336	小范围	-0.062384
-4.859336	2％	-0.062384
-4.558307	开设	-0.062384
-4.160367	油漆	-0.062384
-4.859336	不会在	-0.062384
-4.859336	使者	-0.062384
-4.859336	主角	-0.062384
-4.859336	振奋人心	-0.062384
-4.859336	运煤船	-0.062384
-4.558307	压缩	-0.062384
-4.257277	海上	-0.062384
-4.859336	挡风	-0.062384
-4.558307	剧目	-0.363414
-4.859336	求职	-0.062384
-4.257277	异常	-0.187323
-4.382215	喝茶	-0.062384
-4.859336	求援	-0.062384
-4.859336	托管	-0.062384
-4.859336	校样	-0.062384
-4.859336	总金额	-0.062384
-4.859336	驾	-0.062384
-3.655216	男孩	-0.144054
-4.859336	之差	-0.062384
-4.859336	闲荡	-0.062384
-4.859336	清结	-0.062384
-4.859336	徙	-0.062384
-4.558307	人吗	-0.363414
-4.859336	算计	-0.062384
-4.558307	开价	-0.062384
-4.859336	这一天	-0.062384
-4.859336	浮夸	-0.363414
-4.859336	能忍	-0.062384
-4.859336	000	-0.062384
-4.859336	长串	-0.062384
-4.257277	犹太人	-0.187323
-4.859336	片段	-0.062384
-4.859336	零分	-0.062384
-4.859336	手脚利索	-0.062384
-4.859336	偿还债务	-0.062384
-4.382215	再说	-0.062384
-4.859336	撞伤	-0.062384
-4.859336	隔墙有耳	-0.062384
-4.859336	更凉	-0.062384
-4.558307	单子	-0.363414
-4.859336	休	-0.062384
-4.382215	再来	-0.062384
-4.257277	早期	-0.062384
-4.859336	山东	-0.062384
-4.859336	尖音	-0.062384
-4.558307	坐飞机	-0.062384
-4.558307	次序	-0.062384
-4.859336	所见	-0.062384
-4.382215	别再	-0.062384
-4.859336	闭着	-0.062384
-4.859336	来风	-0.062384
-3.713208	并不	-0.087208
-3.780155	流行	-0.238475
-4.859336	技术培训	-0.062384
-4.859336	就学	-0.062384
-4.257277	受不了	-0.363414
-4.859336	很会	-0.062384
-4.859336	钢琴演奏	-0.062384
-4.558307	约束	-0.062384
-4.859336	兴味索然	-0.062384
-4.257277	原地	-0.062384
-4.859336	皮相	-0.062384
-4.859336	而得	-0.062384
-4.859336	钩在	-0.062384
-4.382215	刚好	-0.062384
-4.859336	定给	-0.062384
-4.859336	击向	-0.062384
-4.558307	犹太	-0.062384
-4.257277	拖	-0.062384
-4.859336	三块	-0.062384
-4.859336	铁锹	-0.062384
-4.859336	持异议	-0.062384
-4.859336	信托	-0.062384
-4.859336	转变为	-0.062384
-4.859336	不义	-0.062384
-4.859336	魔法师	-0.062384
-4.859336	排入	-0.062384
-4.859336	一齐	-0.062384
-4.859336	般地	-0.062384
-4.859336	清水	-0.062384
-4.859336	运载	-0.062384
-4.859336	缕缕	-0.062384
-4.859336	烘焙	-0.062384
-4.558307	于是	-0.062384
-4.859336	抽水机	-0.062384
-4.257277	社区	-0.062384
-4.257277	羽毛	-0.664444
-4.859336	不太想	-0.062384
-4.859336	呼呼地	-0.062384
-4.859336	桥下	-0.062384
-3.956246	团体	-0.238475
-4.859336	向那	-0.062384
-4.257277	想出	-0.363414
-4.558307	斩	-0.062384
-4.859336	大伙儿	-0.062384
-4.859336	大获	-0.062384
-4.859336	良性肿瘤	-0.062384
-4.558307	香蕉	-0.062384
-4.382215	两天	-0.062384
-4.859336	这太	-0.062384
-4.558307	手提箱	-0.062384
-4.859336	炮轰	-0.062384
-4.160367	光线	-0.062384
-4.859336	猪栏	-0.062384
-4.859336	葡萄汁	-0.062384
-4.160367	州	-0.062384
-4.859336	礼品店	-0.062384
-4.859336	大谈	-0.062384
-4.859336	光在	-0.062384
-4.859336	演讲家	-0.062384
-4.382215	得想	-0.062384
-4.859336	聚合体	-0.062384
-4.382215	杀人	-0.062384
-4.558307	荣幸之至	-0.062384
-4.382215	雷达	-0.062384
-4.859336	满屋	-0.062384
-4.859336	模拟	-0.062384
-4.859336	超速	-0.062384
-4.558307	官	-0.062384
-4.859336	出齐	-0.062384
-4.859336	小费	-0.062384
-4.859336	正话	-0.062384
-4.859336	禄	-0.062384
-4.859336	夏洛特	-0.062384
-4.257277	通过了	-0.062384
-4.382215	可供	-0.062384
-4.558307	付诸实施	-0.062384
-4.859336	傲然	-0.062384
-4.558307	不应该	-0.062384
-4.558307	钉子	-0.062384
-3.268272	这些	-0.089658
-4.859336	双音节	-0.062384
-4.558307	将带	-0.062384
-4.257277	及格	-0.363414
-4.859336	吉奥	-0.062384
-4.859336	锡	-0.062384
-4.859336	出于	-0.062384
-4.859336	序	-0.062384
-4.558307	海里	-0.062384
-4.081185	没有人	-0.167119
-4.859336	在哪	-0.062384
-4.558307	购物	-0.062384
-4.859336	还给	-0.062384
-4.859336	硫磺味	-0.062384
-4.257277	课	-0.062384
-4.859336	肢体	-0.062384
-4.859336	早知道	-0.062384
-4.859336	聚居地	-0.062384
-4.160367	上星期	-0.159294
-4.859336	远足	-0.062384
-3.817944	商品	-0.197083
-4.859336	二三十年	-0.062384
-4.859336	散去	-0.062384
-4.558307	隔壁	-0.062384
-4.558307	彬彬有礼	-0.062384
-4.859336	弹了	-0.062384
-4.859336	挺好	-0.062384
-4.081185	极大	-0.238475
-4.859336		-1.715597
-4.859336	有消息	-0.062384
-4.859336	登陆艇	-0.062384
-4.558307	出其不意	-0.062384
-4.382215	信封	-0.062384
-4.859336	上上	-0.062384
-4.859336	线头	-0.062384
-4.382215	教训	-0.062384
-4.859336	观看者	-0.062384
-4.558307	胖子	-0.062384
-4.558307	陪	-0.062384
-4.859336	刻苦学习	-0.062384
-4.558307	想看	-0.062384
-4.859336	一般说来	-0.062384
-4.859336	俱	-0.062384
-4.160367	演奏	-0.062384
-4.859336	十三	-0.062384
-3.905094	不了	-0.284233
-4.160367	加以	-0.062384
-4.859336	瓜子脸	-0.062384
-4.859336	短了	-0.062384
-4.859336	不早了	-0.062384
-4.859336	意向	-0.062384
-4.859336	行吗	-0.062384
-4.859336	史诗	-0.062384
-4.859336	高声	-0.062384
-4.859336	感兴趣者	-0.062384
-4.859336	皇冠	-0.062384
-4.859336	间中	-0.062384
-4.859336	难忘	-0.062384
-4.257277	跟她	-0.062384
-4.859336	蒙上	-0.062384
-4.859336	窃取	-0.062384
-4.014238	吸引	-0.129331
-4.382215	下周	-0.062384
-4.859336	看什么	-0.062384
-4.081185	眼前	-0.238475
-4.558307	爬	-0.062384
-4.257277	宽松	-0.062384
-3.956246	人物	-0.460324
-4.859336	防卫	-0.062384
-4.160367	一句话	-0.159294
-4.859336	几年前	-0.062384
-4.859336	所学	-0.062384
-4.859336	无水	-0.062384
-4.382215	挑战	-0.062384
-4.859336	同事	-0.062384
-4.257277	都为	-0.062384
-4.859336	极讨厌	-0.062384
-4.558307	一大堆	-0.062384
-4.558307	中世纪	-0.062384
-4.859336	既想	-0.062384
-4.558307	有权	-0.062384
-4.859336	吃力	-0.062384
-4.859336	猛掷	-0.062384
-4.859336	铺地板	-0.062384
-4.558307	轻易	-0.062384
-4.558307	沙漏	-0.062384
-4.859336	泥里	-0.062384
-4.859336	针对	-0.062384
-4.859336	造出	-0.062384
-4.558307	两辆	-0.062384
-4.859336	不可救药	-0.062384
-3.713208	保持	-0.120376
-4.859336	任何条件	-0.062384
-4.382215	得有	-0.062384
-4.014238	坚决	-0.120376
-4.859336	美分	-0.062384
-4.859336	可以请	-0.062384
-4.859336	电影业	-0.062384
-4.859336	刻	-0.062384
-4.859336	九点	-0.062384
-4.859336	那又	-0.062384
-4.558307	气得	-0.062384
-4.859336	空中楼阁	-0.062384
-4.558307	骑在	-0.062384
-4.160367	一番	-0.141565
-4.859336	17岁	-0.062384
-3.412179	正	-0.087208
-4.558307	顶端	-0.062384
-4.558307	北部	-0.062384
-4.859336	抢去	-0.062384
-4.558307	凶手	-0.062384
-4.160367	犯罪	-0.141565
-4.558307	桶	-0.062384
-4.558307	600	-0.062384
-4.558307	可能在	-0.062384
-4.859336	警车	-0.062384
-4.160367	或在	-0.062384
-4.859336	想像中	-0.062384
-4.558307	手腕	-0.062384
-4.859336	三分之一	-0.062384
-4.382215	点了	-0.539505
-4.859336	合得来	-0.062384
-4.859336	合算	-0.062384
-4.859336	冷冻机	-0.062384
-4.859336	如象	-0.062384
-4.558307	时机	-0.062384
-4.558307	日益	-0.062384
-4.859336	大额	-0.062384
-4.558307	就到	-0.062384
-4.160367	将来	-0.141565
-4.257277	接触	-0.062384
-4.859336	扩	-0.062384
-4.081185	走过	-0.363414
-4.859336	译者	-0.062384
-4.859336	前功尽弃	-0.062384
-4.859336	利乌斯	-0.062384
-4.081185	少	-0.208512
-4.859336	左转	-0.062384
-4.014238	能用	-0.062384
-4.859336	救助	-0.062384
-4.081185	粗糙	-0.363414
-4.859336	岁	-0.062384
-4.558307	大会	-0.062384
-4.558307	赞叹	-0.062384
-4.558307	沼泽地	-0.062384
-4.859336	匪帮	-0.062384
-4.859336	拉起	-0.062384
-4.558307	跑来	-0.062384
-4.558307	四分之一	-0.062384
-4.558307	灰姑娘	-0.062384
-4.859336	最年长	-0.062384
-4.859336	埋	-0.062384
-4.859336	养鸡	-0.062384
-4.859336	淡到	-0.062384
-4.859336	彩车	-0.062384
-4.257277	天哪	-0.664444
-4.859336	劲	-0.062384
-4.859336	帮不了	-0.062384
-4.859336	深海	-0.062384
-4.859336	大鱼	-0.062384
-4.859336	站里	-0.062384
-4.859336	一双鞋	-0.062384
-4.859336	暂存	-0.062384
-4.859336	恒	-0.062384
-4.160367	打扫	-0.238475
-3.905094	旋转	-0.539505
-4.558307	无缘无故	-0.363414
-4.558307	棉	-0.062384
-3.905094	一片	-0.092347
-4.859336	西太平洋	-0.062384
-4.859336	开发商	-0.062384
-4.558307	治理	-0.062384
-4.859336	桂林	-0.062384
-4.558307	灵感	-0.062384
-4.859336	追到	-0.062384
-4.859336	检察官	-0.062384
-4.081185	错	-0.238475
-4.382215	起身	-0.062384
-4.859336	港内	-0.062384
-4.859336	忽略	-0.062384
-4.558307	打成	-0.062384
-4.382215	登上	-0.062384
-4.257277	只要	-0.141565
-4.859336	盘中	-0.062384
-4.859336	僻静	-0.062384
-4.859336	红红的	-0.062384
-4.558307	加工	-0.062384
-4.859336	人质	-0.062384
-4.859336	大洋	-0.062384
-4.382215	山	-0.238475
-4.859336	歌谣	-0.062384
-4.859336	过惯	-0.062384
-3.257277	很快	-0.433050
-4.859336	深得	-0.062384
-4.859336	交口称赞	-0.062384
-4.558307	含义	-0.062384
-4.859336	拐	-0.062384
-3.461396	都是	-0.078774
-4.160367	孔	-0.062384
-4.382215	忘记了	-0.062384
-4.558307	看著	-0.062384
-4.859336	杀人者	-0.062384
-4.859336	可从	-0.062384
-4.859336	钓钓鱼	-0.062384
-4.859336	镇民	-0.062384
-4.859336	特许状	-0.062384
-4.859336	在户外	-0.062384
-4.859336	事态	-0.062384
-4.014238	赶上	-0.062384
-4.558307	光荣	-0.062384
-4.859336	好几遍	-0.062384
-4.859336	玩了	-0.062384
-4.859336	五十年	-0.062384
-4.859336	植被	-0.062384
-4.859336	可口可乐	-0.062384
-4.859336	共生	-0.062384
-3.683245	赢得	-0.092347
-4.859336	拼凑	-0.062384
-4.859336	趋于稳定	-0.062384
-4.558307	熄火	-0.062384
-4.859336	尝试性	-0.062384
-4.859336	同时代	-0.062384
-4.859336	虎狼	-0.062384
-3.817944	秘密	-0.171529
-4.859336	蒙特卡洛	-0.062384
-4.558307	驾车	-0.062384
-4.859336	输	-0.062384
-4.558307	新到	-0.062384
-4.382215	疯了	-0.664444
-4.859336	迎合	-0.062384
-4.558307	看电影	-0.363414
-4.859336	攻入	-0.062384
-4.859336	救生	-0.062384
-4.382215	最美	-0.062384
-4.382215	直线	-0.284233
-4.558307	歧视	-0.062384
-4.859336	抚养	-0.062384
-4.558307	可加	-0.062384
-4.257277	奋斗	-0.062384
-4.859336	业主	-0.062384
-4.859336	仪礼	-0.062384
-4.382215	都用	-0.062384
-4.859336	一个团	-0.062384
-4.859336	信贷	-0.062384
-4.160367	牧师	-0.062384
-4.859336	想出来	-0.062384
-4.160367	发行	-0.159294
-4.382215	传出	-0.238475
-4.859336	既使	-0.062384
-4.859336	仍用	-0.062384
-4.382215	告别	-0.238475
-4.859336	大有文章	-0.062384
-4.859336	家世	-0.062384
-4.160367	排	-0.062384
-4.382215	花光	-0.062384
-4.382215	变质	-0.062384
-4.558307	排球	-0.062384
-4.859336	蓝墨水	-0.062384
-4.859336	松开	-0.062384
-4.859336	食堂	-0.062384
-3.905094	电脑	-0.062384
-4.859336	赶在	-0.062384
-4.859336	干下去	-0.062384
-4.859336	九十多岁	-0.062384
-4.859336	新工	-0.062384
-4.859336	交通灯	-0.062384
-4.382215	外交	-0.187323
-4.859336	沃	-0.062384
-4.558307	日光浴	-0.062384
-4.859336	订在	-0.062384
-4.859336	花得精光	-0.062384
-4.859336	能到	-0.062384
-4.859336	地雷	-0.062384
-4.859336	便乘	-0.062384
-4.081185	不准	-0.062384
-4.859336	肚脐	-0.062384
-4.382215	演	-0.062384
-4.859336	麻醉药	-0.062384
-4.859336	童子军	-0.062384
-4.382215	卖给	-0.062384
-3.745393	欢迎	-0.266504
-4.257277	大大	-0.062384
-4.558307	关系到	-0.062384
-4.558307	中一	-0.062384
-4.859336	规划	-0.062384
-4.382215	股	-0.062384
-4.859336	1543年	-0.062384
-4.558307	坚定	-0.062384
-4.558307	古典	-0.062384
-4.558307	脾气	-0.062384
-4.859336	原子基	-0.062384
-4.558307	火车站	-0.062384
-4.859336	埋头	-0.062384
-4.859336	包打听	-0.062384
-4.558307	发言者	-0.062384
-4.859336	刷	-0.062384
-4.558307	定律	-0.062384
-4.859336	不愧	-0.062384
-4.257277	上来	-0.062384
-4.382215	一台	-0.238475
-4.859336	铛	-0.062384
-3.905094	中间	-0.171529
-3.956246	地上	-0.266504
-4.859336	重要问题	-0.062384
-4.859336	蠢话	-0.062384
-4.081185	恐怖	-0.062384
-4.257277	必	-0.062384
-4.859336	秧苗	-0.062384
-4.859336	拿回	-0.062384
-4.859336	有希望	-0.062384
-4.859336	不跟	-0.062384
-4.382215	不愉快	-0.062384
-4.859336	夹着	-0.062384
-4.859336	来得快	-0.062384
-4.859336	地被	-0.062384
-4.859336	所犯	-0.062384
-4.859336	铜片	-0.062384
-4.859336	钟时	-0.062384
-4.257277	地球上	-0.062384
-4.859336	膀胱	-0.062384
-4.558307	太短	-0.363414
-4.859336	前排	-0.062384
-4.558307	珍贵	-0.062384
-4.558307	惊异	-0.363414
-4.859336	掠	-0.062384
-4.859336	本为	-0.062384
-4.160367	有两	-0.062384
-2.872565	到	-0.108547
-4.859336	安危	-0.062384
-4.558307	预期	-0.062384
-4.081185	贷款	-0.141565
-4.558307	犯人	-0.062384
-4.859336	口齿伶俐	-0.062384
-3.537117	最好	-0.308366
-4.382215	变为	-0.062384
-4.257277	首先	-0.062384
-4.160367	把手	-0.062384
-4.859336	六十三	-0.062384
-4.859336	各个方面	-0.062384
-4.382215	要和	-0.062384
-4.859336	女中	-0.062384
-4.558307	发音	-0.062384
-3.859336	车辆	-0.097146
-4.859336	邪念	-0.062384
-4.859336	叉	-0.062384
-4.382215	矛盾	-0.187323
-4.382215	卷成	-0.062384
-4.859336	劣质	-0.062384
-4.859336	壮丽	-0.062384
-4.859336	打倒	-0.062384
-4.558307	乔	-0.062384
-4.859336	精神负担	-0.062384
-4.859336	而上	-0.062384
-4.558307	嗅	-0.062384
-4.382215	一夜	-0.062384
-4.859336	两党	-0.062384
-4.160367	里面	-0.305422
-4.257277	后悔	-0.187323
-4.859336	吊死	-0.062384
-4.859336	惊得	-0.062384
-4.558307	几个人	-0.238475
-4.257277	变量	-0.062384
-4.859336	吵起来	-0.062384
-4.859336	喂养	-0.062384
-4.382215	漆成	-0.238475
-4.382215	不介意	-0.062384
-4.859336	诺丁汉	-0.062384
-4.558307	当今	-0.062384
-3.956246	一顿	-0.317657
-4.859336	素描	-0.062384
-4.859336	蓝天	-0.062384
-4.859336	空气清新	-0.062384
-4.382215	战胜	-0.062384
-4.859336	跳蛙	-0.062384
-4.859336	耀武扬威	-0.062384
-4.859336	官僚主义	-0.062384
-4.859336	几名	-0.062384
-4.382215	规	-0.062384
-4.859336	洗衣店	-0.062384
-4.014238	为止	-0.606452
-3.956246	年纪	-0.108142
-4.382215	携带	-0.062384
-4.859336	忧郁	-0.062384
-4.558307	维修	-0.062384
-4.859336	拦河坝	-0.062384
-4.859336	日语	-0.062384
-4.859336	打手势	-0.062384
-4.859336	三部	-0.062384
-3.905094	音乐会	-0.113537
-4.859336	提纲	-0.062384
-4.859336	死掉	-0.062384
-4.859336	代价	-0.062384
-4.859336	大忙	-0.062384
-4.558307	几部分	-0.062384
-4.859336	清出	-0.062384
-4.859336	不光	-0.062384
-4.859336	软心肠	-0.062384
-4.859336	虽已	-0.062384
-4.859336	更能	-0.062384
-4.081185	热情	-0.129331
-4.081185	忠告	-0.414567
-4.859336	重重	-0.062384
-4.558307	橘子皮	-0.062384
-4.859336	澡盆	-0.062384
-4.859336	超额	-0.062384
-4.257277	许	-0.062384
-4.859336	近两年来	-0.062384
-4.859336	口舌	-0.062384
-4.859336	大国	-0.062384
-3.367975	那些	-0.069563
-4.859336	走下	-0.062384
-4.859336	美金	-0.062384
-4.859336	牛仔裤	-0.062384
-4.859336	填补	-0.062384
-4.382215	赞同	-0.062384
-4.160367	标志	-0.062384
-4.558307	双脚	-0.062384
-3.497609	方面	-0.141565
-4.558307	肤色	-0.062384
-4.859336	有毅力	-0.062384
-4.382215	疏忽	-0.062384
-4.859336	扬	-0.062384
-4.859336	可厌	-0.062384
-3.354187	受到	-0.074283
-4.558307	之情	-0.062384
-4.859336	保守党	-0.062384
-4.160367	一部分	-0.171529
-4.558307	结结巴巴	-0.363414
-4.859336	觉得很	-0.062384
-4.382215	报复	-0.238475
-4.257277	抛弃	-0.062384
-4.859336	停滞	-0.062384
-4.859336	原生	-0.062384
-4.859336	蚍	-0.062384
-4.160367	积极	-0.460324
-4.859336	名门	-0.062384
-4.859336	更坏	-0.062384
-4.859336	乐就	-0.062384
-4.859336	宝	-0.062384
-4.558307	独自	-0.062384
-4.859336	量量	-0.062384
-4.859336	特征区	-0.062384
-4.859336	景况	-0.062384
-4.859336	革命者	-0.062384
-4.859336	触到	-0.062384
-4.859336	布擦	-0.062384
-4.558307	山坡	-0.062384
-4.859336	价低	-0.062384
-4.859336	粮仓	-0.062384
-3.956246	承认	-0.108142
-4.014238	有助于	-0.062384
-4.160367	平	-0.062384
-4.859336	知名	-0.062384
-4.558307	夜总会	-0.062384
-4.859336	到过	-0.062384
-4.558307	相机	-0.062384
-4.859336	与此	-0.062384
-4.859336	乱了	-0.062384
-4.859336	墓	-0.062384
-4.558307	从头	-0.062384
-4.859336	报盘	-0.062384
-4.014238	本来	-0.062384
-4.859336	怎么能	-0.062384
-4.859336	索性	-0.062384
-4.859336	画室	-0.062384
-4.859336	合格	-0.062384
-4.382215	一首	-0.062384
-3.956246	争取	-0.062384
-4.859336	滴答	-0.062384
-4.558307	学业	-0.062384
-4.859336	辅以	-0.062384
-4.859336	遇到过	-0.062384
-4.859336	期初	-0.062384
-4.859336	棺材	-0.062384
-4.859336	太好	-0.062384
-4.014238	快乐	-0.208512
-4.382215	收益	-0.062384
-4.257277	打牌	-0.062384
-4.382215	最喜欢	-0.187323
-4.859336	质量比	-0.062384
-4.160367	创作	-0.141565
-4.382215	十足	-0.187323
-4.859336	经商	-0.062384
-4.257277	都没	-0.062384
-4.859336	之事	-0.062384
-4.859336	45分	-0.062384
-4.859336	连续	-0.062384
-4.859336	剃刀	-0.062384
-4.859336	职工	-0.062384
-4.859336	如有	-0.062384
-4.382215	运用	-0.062384
-4.558307	传动	-0.062384
-3.817944	结构	-0.251440
-4.382215	越位	-0.238475
-4.859336	孪生	-0.062384
-4.859336	金属片	-0.062384
-4.382215	栅栏	-0.062384
-4.859336	口语体	-0.062384
-4.859336	之多	-0.062384
-4.382215	犯了	-0.062384
-4.859336	延期付款	-0.062384
-4.859336	线长	-0.062384
-4.859336	踏步	-0.062384
-3.604064	做出	-0.276264
-4.257277	喜剧	-0.062384
-4.859336	小人物	-0.062384
-4.859336	值得称赞	-0.062384
-3.479125	物	-0.129331
-4.859336	栖于	-0.062384
-4.859336	泉水	-0.062384
-4.859336	金属环	-0.062384
-4.859336	下棋	-0.062384
-4.859336	正需要	-0.062384
-4.859336	服用	-0.062384
-4.859336	门徒	-0.062384
-4.859336	嘴里	-0.062384
-4.558307	已由	-0.062384
-4.859336	吃了一惊	-0.062384
-4.859336	第四块	-0.062384
-4.859336	这种问题	-0.062384
-4.859336	蹩脚	-0.062384
-4.558307	经编织物	-0.062384
-4.558307	卧室	-0.363414
-4.859336	愤慨	-0.062384
-4.859336	很厚	-0.062384
-4.859336	空想	-0.062384
-4.859336	中暑	-0.062384
-4.859336	削价	-0.062384
-4.558307	临死	-0.363414
-3.956246	越	-0.187323
-4.859336	有笔	-0.062384
-4.558307	百年	-0.062384
-4.859336	岩	-0.062384
-4.160367	e	-0.062384
-4.859336	解释一下	-0.062384
-3.558306	回家	-0.331229
-4.081185	激起	-0.062384
-4.014238	掉	-0.129331
-4.558307	蜡	-0.062384
-4.859336	翻来覆去	-0.062384
-4.859336	打黑	-0.062384
-4.859336	以至于	-0.062384
-4.859336	各位	-0.062384
-4.558307	扭	-0.062384
-4.859336	蓿	-0.062384
-4.859336	反应堆	-0.062384
-4.558307	塞进	-0.363414
-4.081185	而言	-0.840535
-4.859336	微不足道	-0.062384
-3.479125	一位	-0.074618
-4.257277	那边	-0.062384
-4.859336	摩	-0.062384
-4.859336	太迟	-0.062384
-3.628888	材料	-0.248021
-4.859336	幸免	-0.062384
-4.859336	地步	-0.539505
-4.859336	本领	-0.062384
-4.859336	两院	-0.062384
-4.859336	小石子	-0.062384
-4.859336	连于	-0.062384
-4.859336	厂主	-0.062384
-4.382215	一时	-0.062384
-4.859336	不朽	-0.062384
-4.558307	用纸	-0.062384
-3.956246	应付	-0.062384
-4.558307	寻	-0.062384
-4.859336	推出	-0.062384
-4.558307	希望能	-0.062384
-4.859336	丝毫	-0.062384
-4.859336	迁居	-0.062384
-4.859336	热切	-0.062384
-4.558307	百分之十	-0.062384
-4.859336	回到家	-0.062384
-4.859336	电冰箱	-0.062384
-4.014238	被迫	-0.062384
-4.859336	并有	-0.062384
-3.713208	年轻	-0.227194
-4.859336	真傻	-0.062384
-4.859336	事后	-0.062384
-4.859336	腆	-0.062384
-4.859336	淬火	-0.062384
-4.859336	核反应	-0.062384
-4.859336	双轴	-0.062384
-4.859336	相似之处	-0.062384
-4.558307	不做	-0.062384
-4.859336	废品	-0.062384
-4.859336	新奇	-0.062384
-4.859336	教导	-0.062384
-4.859336	革新	-0.062384
-4.859336	拿什么	-0.062384
-4.859336	有被	-0.062384
-3.859336	先	-0.062384
-4.859336	硝基甲苯	-0.062384
-4.859336	母亲节	-0.062384
-4.859336	无氧	-0.062384
-4.558307	花彩	-0.062384
-4.859336	探险队员	-0.062384
-4.558307	归咎	-0.062384
-4.859336	附去	-0.062384
-4.859336	咖啡壶	-0.062384
-3.780155	土地	-0.152561
-4.558307	疾患	-0.363414
-4.859336	眨眼	-0.062384
-4.859336	校准	-0.062384
-4.859336	插进来	-0.062384
-4.382215	消	-0.062384
-4.859336	发源	-0.062384
-4.859336	不重读	-0.062384
-4.859336	必做	-0.062384
-4.558307	人工	-0.062384
-4.859336	消费	-0.062384
-4.859336	4月	-0.062384
-4.382215	黑暗	-0.062384
-4.859336	抵债	-0.062384
-3.859336	金属	-0.097146
-4.160367	过程	-0.085865
-4.382215	分外	-0.062384
-4.859336	盗匪	-0.062384
-4.859336	甘蔗	-0.062384
-4.859336	向地	-0.062384
-4.859336	埋下	-0.062384
-4.558307	磨掉	-0.062384
-4.859336	咨询公司	-0.062384
-4.859336	八分	-0.062384
-4.558307	饶恕	-0.062384
-4.859336	家养	-0.062384
-3.604064	动物	-0.331229
-4.859336	此法	-0.062384
-4.558307	够了	-0.363414
-4.859336	附有	-0.062384
-4.558307	变坏	-0.062384
-4.859336	戈	-0.062384
-4.859336	深受感动	-0.062384
-3.655216	怎么	-0.122382
-4.081185	家具	-0.217286
-4.859336	无趣味	-0.062384
-4.859336	拔起	-0.062384
-4.859336	适合做	-0.062384
-4.859336	发挥作用	-0.062384
-4.859336	伞形科	-0.062384
-4.558307	席卷	-0.062384
-4.859336	拆毁	-0.062384
-4.859336	投手	-0.062384
-4.014238	雨	-0.108142
-4.859336	当家作主	-0.062384
-3.558306	由于	-0.132020
-4.859336	猎手	-0.062384
-4.382215	是因为	-0.062384
-4.558307	肾上腺	-0.062384
-4.859336	而且还	-0.062384
-4.558307	司令	-0.062384
-4.859336	汉纳	-0.062384
-4.558307	在当	-0.062384
-4.558307	定额	-0.062384
-4.558307	上半场	-0.062384
-4.859336	省时间	-0.062384
-4.382215	加热	-0.062384
-4.859336	5000条	-0.062384
-4.859336	这话	-0.062384
-4.014238	囚犯	-0.120376
-4.859336	诸项	-0.062384
-4.257277	陆地	-0.159294
-4.859336	过敏症	-0.062384
-4.859336	牢牢地	-0.062384
-4.859336	恶狠狠	-0.062384
-4.859336	车商	-0.062384
-4.859336	吸引住	-0.062384
-4.859336	被选为	-0.062384
-4.859336	金融界	-0.062384
-4.859336	厂家	-0.062384
-4.382215	速	-0.062384
-4.382215	示威	-0.062384
-3.780155	下雨	-0.574267
-4.558307	也能够	-0.062384
-4.859336	异性	-0.062384
-4.859336	跳动	-0.062384
-4.859336	联邦政府	-0.062384
-4.859336	当头	-0.062384
-4.382215	忙于	-0.062384
-4.859336	唉	-0.062384
-4.859336	吞吞吐吐	-0.062384
-4.558307	妙	-0.062384
-4.859336	母权制	-0.062384
-4.558307	解放	-0.062384
-4.014238	领域	-0.129331
-4.859336	唇	-0.062384
-4.859336	缓刑	-0.062384
-4.859336	一觉醒来	-0.062384
-4.558307	花头	-0.062384
-4.859336	不可逾越	-0.062384
-4.859336	万磅	-0.062384
-4.382215	星期二	-0.062384
-4.558307	想必	-0.062384
-4.558307	可以向	-0.062384
-4.859336	对工	-0.062384
-3.628888	文件	-0.246908
-4.859336	之夜	-0.062384
-4.382215	本能	-0.062384
-4.859336	费心	-0.062384
-4.382215	低下	-0.062384
-4.859336	威风凛凛	-0.062384
-4.558307	然后再	-0.062384
-4.382215	不出	-0.062384
-4.257277	她说	-0.305422
-4.160367	对着	-0.062384
-4.859336	一超	-0.062384
-4.081185	所做	-0.907482
-4.859336	扬言	-0.062384
-4.859336	缓冲	-0.062384
-4.859336	压低	-0.062384
-3.956246	树	-0.171529
-4.859336	抗议	-0.062384
-4.859336	原丝	-0.062384
-4.859336	是非曲直	-0.062384
-3.479125	不同	-0.347620
-4.859336	如是	-0.062384
-4.382215	一窍不通	-0.539505
-4.859336	上划	-0.062384
-4.558307	光学	-0.062384
-4.160367	甚至	-0.062384
-4.382215	火车上	-0.187323
-4.859336	选票	-0.062384
-4.859336	受制于	-0.062384
-4.859336	挑得	-0.062384
-4.859336	而作	-0.062384
-4.081185	会见	-0.062384
-4.382215	拯救	-0.062384
-4.382215	压抑	-0.062384
-4.859336	处以	-0.062384
-4.859336	突	-0.062384
-3.817944	看起来	-0.062384
-4.859336	大名	-0.062384
-4.859336	动听	-0.062384
-4.859336	误点	-0.062384
-4.382215	以此	-0.062384
-4.859336	于是乎	-0.062384
-3.745393	购买	-0.129331
-4.859336	玩儿	-0.062384
-4.014238	去看	-0.129331
-4.859336	不近人情	-0.062384
-3.905094	带着	-0.100173
-4.859336	隐居	-0.062384
-4.160367	都能	-0.062384
-4.859336	两枝	-0.062384
-4.859336	纳税人	-0.363414
-4.382215	演戏	-0.062384
-4.859336	冲着	-0.062384
-4.859336	不吝惜	-0.062384
-4.859336	1869	-0.062384
-4.014238	非法	-0.305422
-4.558307	恩惠	-0.062384
-3.817944	一年	-0.149534
-4.558307	种植	-0.062384
-4.859336	要了	-0.062384
-4.558307	戏中	-0.062384
-4.859336	大部头	-0.062384
-4.859336	取水	-0.062384
-4.859336	盒	-0.062384
-4.558307	蝴蝶结	-0.363414
-3.905094	供	-0.108142
-4.859336	岩石学	-0.062384
-4.859336	疾驶	-0.062384
-4.160367	安慰	-0.159294
-4.382215	关键	-0.062384
-4.859336	族间	-0.062384
-4.859336	一层	-0.062384
-4.859336	运输业	-0.062384
-4.859336	哪家	-0.062384
-4.859336	电影吧	-0.062384
-4.558307	木匠	-0.062384
-4.859336	搜寻	-0.062384
-4.859336	听著	-0.062384
-4.558307	中饭	-0.062384
-4.859336	preset1	-0.062384
-4.859336	码本	-0.062384
-4.859336	税务局	-0.363414
-4.859336	金玛	-0.062384
-4.859336	易受骗	-0.062384
-4.558307	一身	-0.062384
-4.160367	村子	-0.062384
-4.859336	两样	-0.062384
-4.160367	供给	-0.062384
-4.859336	反感	-0.062384
-4.859336	盈亏	-0.062384
-4.859336	看着她	-0.062384
-4.558307	遮蔽	-0.062384
-4.859336	焦味	-0.062384
-3.905094	经历	-0.187323
-4.859336	却不能	-0.062384
-4.859336	此次	-0.062384
-4.859336	太吵	-0.062384
-4.558307	音高	-0.062384
-4.859336	谈判者	-0.062384
-4.859336	戒	-0.062384
-4.859336	拿出去	-0.062384
-4.859336	跟谁	-0.062384
-4.859336	赶回来	-0.062384
-4.859336	狱	-0.062384
-4.859336	心伤	-0.062384
-4.859336	脚步声	-0.062384
-4.382215	前往	-0.062384
-4.160367	牙	-0.062384
-4.257277	衰退	-0.187323
-4.859336	瓦格	-0.062384
-4.859336	微热	-0.062384
-4.859336	嗤之以鼻	-0.062384
-4.859336	静电荷	-0.062384
-3.817944	小孩	-0.197083
-4.859336	相应	-0.062384
-4.859336	圈子里	-0.062384
-4.160367	类	-0.159294
-4.382215	大发雷霆	-0.284233
-4.859336	生疏了	-0.062384
-4.859336	好朋友	-0.062384
-3.956246	货币	-0.120376
-4.382215	碰	-0.187323
-4.558307	除草	-0.363414
-4.859336	哥白尼	-0.062384
-4.558307	一班	-0.062384
-4.558307	排泄	-0.062384
-4.859336	凶恶	-0.062384
-4.859336	一九二九年	-0.062384
-4.859336	尽快	-0.062384
-4.014238	目录	-0.062384
-4.081185	印	-0.062384
-4.859336	家长	-0.062384
-4.859336	谐调	-0.062384
-4.859336	照镜子	-0.062384
-4.859336	转给	-0.062384
-3.905094	一套	-0.108142
-4.558307	毒药	-0.062384
-4.382215	溶剂	-0.062384
-4.859336	荫影	-0.062384
-4.859336	站立	-0.062384
-4.382215	比分	-0.062384
-4.859336	1888年	-0.062384
-4.257277	否决	-0.187323
-3.956246	公开	-0.238475
-4.859336	坏书	-0.062384
-4.257277	水果	-0.187323
-4.859336	攀爬	-0.062384
-4.859336	年度	-0.062384
-4.859336	洗手间	-0.062384
-4.859336	潮	-0.062384
-4.859336	顶尖	-0.062384
-4.859336	停留在	-0.062384
-4.859336	工作方式	-0.062384
-4.859336	平凡	-0.062384
-4.859336	60号	-0.062384
-4.859336	暴政	-0.062384
-4.558307	扣除	-0.062384
-4.859336	浮	-0.062384
-4.859336	大无畏	-0.062384
-4.081185	以及	-0.062384
-2.762426	就	-0.119585
-4.382215	浑身	-0.062384
-4.859336	最得	-0.062384
-4.558307	中断	-0.062384
-4.859336	盖住	-0.062384
-4.558307	仿制品	-0.062384
-4.859336	当家	-0.062384
-4.859336	公共场所	-0.062384
-4.859336	自欺	-0.062384
-4.859336	愈合	-0.062384
-4.859336	马具	-0.062384
-4.859336	收支相抵	-0.062384
-4.558307	药片	-0.062384
-4.558307	倒进	-0.062384
-4.558307	可对	-0.062384
-4.558307	电话铃	-0.363414
-4.859336	飘浮	-0.062384
-4.859336	去意	-0.062384
-4.558307	跳跃	-0.062384
-4.859336	裹	-0.062384
-4.859336	能与	-0.062384
-4.558307	迫切	-0.062384
-3.817944	游泳	-0.404807
-4.859336	不许	-0.062384
-4.558307	如何是好	-0.363414
-3.628888	仔细	-0.203713
-4.257277	模糊	-0.062384
-4.859336	临	-0.062384
-4.558307	规矩	-0.062384
-4.859336	首先要	-0.062384
-4.859336	低微	-0.062384
-4.859336	上旬	-0.062384
-3.956246	一般	-0.062384
-3.327857	并	-0.071724
-4.859336	织	-0.062384
-4.859336	热力	-0.062384
-4.859336	垫	-0.062384
-4.859336	之身	-0.062384
-4.859336	歌唱者	-0.062384
-4.558307	占领	-0.062384
-4.859336	烈士	-0.062384
-3.905094	公路	-0.103777
-4.859336	全称	-0.062384
-4.859336	甘于	-0.062384
-4.859336	植物学	-0.062384
-4.859336	一撕	-0.062384
-4.558307	用头	-0.062384
-4.859336	无货	-0.062384
-4.859336	进食	-0.062384
-4.558307	筋	-0.062384
-4.859336	继续进行	-0.062384
-4.859336	多伊尔	-0.062384
-4.859336	土豆片	-0.062384
-4.382215	短暂	-0.062384
-4.257277	为特征	-0.664444
-4.859336	人情味	-0.062384
-4.859336	匆匆一看	-0.062384
-4.859336	无数	-0.062384
-4.382215	窝囊废	-0.238475
-4.859336	小口	-0.062384
-4.859336	最忙	-0.062384
-4.382215	再向	-0.238475
-4.382215	转动	-0.062384
-4.382215	环	-0.062384
-4.859336	商品目录	-0.062384
-3.780155	苹果	-0.129331
-4.859336	批	-0.062384
-4.859336	看门	-0.062384
-4.859336	散发传单	-0.062384
-4.859336	附属品	-0.062384
-4.859336	分心	-0.062384
-4.160367	失去了	-0.062384
-4.859336	我见	-0.062384
-4.859336	救出来	-0.062384
-4.859336	多长	-0.062384
-4.859336	十八日	-0.062384
-4.859336	同情心	-0.062384
-4.382215	生物学	-0.062384
-3.956246	以来	-0.363414
-3.817944	花了	-0.062384
-4.859336	熔合	-0.062384
-3.905094	职员	-0.171529
-4.859336	二十一号	-0.062384
-4.859336	超市	-0.062384
-4.859336	赶快到	-0.062384
-4.859336	巴利	-0.062384
-4.859336	u	-0.062384
-4.859336	完毕	-0.062384
-4.558307	断定	-0.062384
-4.859336	幸	-0.062384
-4.558307	一掌	-0.062384
-4.859336	贯注	-0.062384
-4.859336	死对头	-0.062384
-4.859336	肌肉发达	-0.062384
-4.859336	钠	-0.062384
-4.859336	来呀	-0.062384
-4.859336	去旅行	-0.062384
-4.859336	兄弟们	-0.062384
-4.859336	崇拜者	-0.062384
-4.859336	绝对主义	-0.062384
-4.859336	会头	-0.062384
-4.382215	标	-0.062384
-4.859336	紧盯	-0.062384
-4.382215	诊所	-0.062384
-4.558307	政府部门	-0.062384
-4.859336	修了	-0.062384
-4.859336	通知者	-0.062384
-4.859336	服役	-0.062384
-4.859336	急需	-0.062384
-4.859336	聘任	-0.062384
-4.859336	出租汽车	-0.062384
-4.859336	停产	-0.062384
-4.859336	锄草	-0.062384
-4.558307	落后	-0.363414
-4.859336	浪潮	-0.062384
-4.859336	6521	-0.062384
-4.859336	丝带	-0.062384
-4.859336	出资	-0.062384
-4.257277	至今	-0.062384
-4.382215	很正常	-0.539505
-4.859336	素	-0.062384
-4.859336	气概	-0.062384
-4.558307	冰	-0.062384
-4.558307	上诉	-0.062384
-4.859336	加利福尼	-0.062384
-4.558307	钟头	-0.062384
-4.382215	没完没了	-0.238475
-4.859336	兼	-0.062384
-4.558307	航行	-0.062384
-4.859336	迭句	-0.062384
-4.558307	残酷	-0.062384
-4.859336	握紧	-0.062384
-3.604064	进入	-0.087208
-4.859336	铁哥们	-0.062384
-4.859336	很能	-0.062384
-4.859336	螺帽	-0.062384
-4.382215	这批	-0.062384
-4.257277	没法	-0.062384
-4.382215	噪声	-0.062384
-4.859336	粗重	-0.062384
-4.859336	磁头	-0.062384
-4.160367	有空	-0.159294
-4.859336	五线谱	-0.062384
-4.859336	印刷工	-0.062384
-4.257277	偷窃	-0.187323
-4.859336	又为	-0.062384
-4.859336	这段时间	-0.062384
-4.558307	大力	-0.062384
-4.558307	客	-0.062384
-4.859336	两缕	-0.062384
-4.558307	亮度	-0.062384
-4.382215	图片	-0.062384
-4.859336	骑着马	-0.062384
-3.817944	常常	-0.094569
-4.859336	再谈	-0.062384
-4.859336	详载	-0.062384
-4.558307	有其	-0.062384
-4.558307	废除	-0.062384
-4.859336	天下人	-0.062384
-4.558307	称之为	-0.062384
-4.558307	佩服	-0.062384
-4.859336	订立	-0.062384
-4.558307	不安全	-0.062384
-4.558307	脱掉	-0.062384
-4.859336	不许动	-0.062384
-3.859336	目标	-0.134935
-4.859336	借款	-0.062384
-4.859336	山间	-0.062384
-4.859336	喷出	-0.062384
-4.859336	集在	-0.062384
-4.081185	疼痛	-0.129331
-4.859336	仪表	-0.062384
-4.558307	很明显	-0.062384
-4.859336	无处	-0.062384
-4.859336	搬上	-0.062384
-4.558307	午	-0.062384
-3.817944	完	-0.187323
-4.859336	高级律师	-0.062384
-3.683245	同意	-0.305422
-4.558307	做起	-0.062384
-4.859336	接头	-0.062384
-4.382215	居然	-0.062384
-4.859336	调子	-0.062384
-4.859336	女友	-0.062384
-4.859336	货柜	-0.062384
-4.014238	腿	-0.129331
-4.859336	粗鲁无礼	-0.062384
-4.859336	而且有	-0.062384
-4.859336	暑假	-0.062384
-4.859336	长膘	-0.062384
-4.859336	撇掉	-0.062384
-4.859336	停顿	-0.062384
-4.859336	针脚	-0.062384
-4.558307	搜索	-0.062384
-4.859336	雄心	-0.062384
-4.859336	戴德郡	-0.062384
-4.859336	机械学	-0.062384
-4.859336	问她	-0.062384
-4.859336	蒸蒸日上	-0.062384
-4.558307	侵犯	-0.062384
-4.859336	狡猾地	-0.062384
-4.558307	成果	-0.238475
-4.558307	女朋友	-0.062384
-4.558307	智力	-0.187323
-4.859336	无耻	-0.062384
-4.859336	传出去	-0.062384
-4.859336	签署	-0.062384
-4.558307	营地	-0.062384
-4.558307	奇迹	-0.539505
-4.558307	不适合	-0.062384
-4.859336	他妈的	-0.062384
-4.859336	消极怠工	-0.062384
-4.859336	救起	-0.062384
-4.859336	钢刀	-0.062384
-4.859336	愚昧	-0.062384
-4.859336	战斗故事	-0.062384
-4.859336	有弹性	-0.062384
-4.558307	所带	-0.062384
-4.859336	犯下	-0.062384
-4.859336	答谢	-0.062384
-4.558307	懂	-0.062384
-4.859336	备件	-0.062384
-4.014238	沉重	-0.363414
-4.859336	大口	-0.062384
-4.859336	长跑	-0.062384
-4.859336	面谈	-0.062384
-4.859336	水泵	-0.062384
-4.859336	25名	-0.062384
-4.859336	热带	-0.062384
-4.558307	公证	-0.062384
-4.382215	交叉	-0.062384
-4.859336	逮捕令	-0.062384
-4.859336	不能允许	-0.062384
-4.859336	胶囊	-0.062384
-4.859336	实况转播	-0.062384
-4.558307	极乐	-0.062384
-4.859336	戒除	-0.062384
-4.859336	1958年	-0.062384
-4.859336	照例	-0.062384
-4.859336	游廊	-0.062384
-4.859336	推了	-0.062384
-4.558307	血细胞	-0.062384
-4.859336	不合	-0.062384
-4.859336	才被	-0.062384
-4.859336	不服	-0.062384
-4.859336	进行到	-0.062384
-4.558307	吹牛	-0.062384
-4.859336	匹配	-0.062384
-4.558307	松软	-0.062384
-4.859336	崭露	-0.062384
-4.558307	消防	-0.062384
-4.859336	低工资	-0.062384
-4.257277	现金	-0.062384
-4.859336	团部	-0.062384
-4.859336	真是太	-0.062384
-4.558307	加上	-0.062384
-4.859336	吹毛求疵	-0.062384
-4.859336	煤矿工人	-0.062384
-4.859336	被偷	-0.062384
-4.859336	操练	-0.062384
-4.558307	一点也	-0.062384
-2.978523	后	-0.316558
-4.859336	辨	-0.062384
-4.558307	不起来	-0.363414
-4.382215	调解人	-0.062384
-4.382215	究竟	-0.062384
-4.859336	晚宴	-0.062384
-4.081185	爵士	-0.062384
-4.859336	噢	-0.363414
-4.859336	汽车贸易	-0.062384
-4.859336	学术上	-0.062384
-4.558307	被封	-0.062384
-4.859336	轻按	-0.062384
-4.558307	婚礼	-0.062384
-4.859336	撤到	-0.062384
-4.859336	遗传上	-0.062384
-4.382215	罗	-0.062384
-4.859336	再试	-0.062384
-4.859336	革	-0.062384
-4.859336	祈祷	-0.062384
-4.382215	哲学	-0.062384
-4.859336	测量仪器	-0.062384
-4.859336	抚摸	-0.062384
-4.859336	展览馆	-0.062384
-4.081185	搞	-0.062384
-4.859336	造词法	-0.062384
-4.859336	法规	-0.062384
-4.558307	三场	-0.062384
-3.817944	喝	-0.103777
-4.859336	天使	-0.062384
-4.382215	所在	-0.238475
-4.859336	算起	-0.062384
-4.859336	亲口说	-0.062384
-4.558307	打在	-0.062384
-4.859336	叛军	-0.062384
-4.257277	看到了	-0.141565
-4.859336	在教	-0.062384
-4.859336	年时	-0.062384
-4.859336	不列颠	-0.062384
-4.859336	说闲话	-0.062384
-4.859336	亮了	-0.062384
-4.859336	借了	-0.062384
-4.859336	推举	-0.062384
-4.859336	争先恐后	-0.062384
-4.160367	上涨	-0.129331
-4.382215	动手	-0.062384
-4.859336	贫苦	-0.062384
-4.859336	用地	-0.062384
-4.257277	之类	-0.664444
-4.558307	辛勤	-0.062384
-4.014238	极为	-0.062384
-4.382215	一塌糊涂	-0.539505
-4.859336	脚部	-0.062384
-4.859336	来不得	-0.062384
-4.081185	最高	-0.141565
-4.382215	著作	-0.062384
-4.014238	兴趣	-0.331229
-4.859336	验中	-0.062384
-4.859336	长期以来	-0.062384
-4.859336	台球	-0.062384
-4.859336	1934	-0.062384
-4.859336	酬金	-0.062384
-4.382215	乱七八糟	-0.238475
-4.859336	数门	-0.062384
-4.859336	子儿	-0.062384
-4.257277	放置	-0.062384
-4.859336	骆驼	-0.062384
-4.859336	中肯	-0.062384
-4.859336	击球手	-0.062384
-4.859336	仅在	-0.062384
-4.081185	悲伤	-0.363414
-4.859336	精髓	-0.062384
-4.382215	圆	-0.062384
-4.859336	蒙古语	-0.062384
-4.859336	弥撒曲	-0.062384
-4.859336	长袍	-0.062384
-4.859336	公寓房	-0.062384
-4.859336	饼乾	-0.062384
-4.859336	好日子	-0.062384
-4.859336	杂技表演	-0.062384
-4.859336	小结	-0.062384
-4.859336	影子	-0.062384
-4.558307	想过	-0.062384
-4.859336	动物学	-0.062384
-4.859336	修订本	-0.062384
-3.956246	一下子	-0.187323
-4.558307	雨云	-0.062384
-4.382215	石	-0.062384
-4.859336	流亡	-0.062384
-3.303034	之后	-0.630586
-4.257277	不对	-0.363414
-4.558307	种族歧视	-0.363414
-4.859336	燥	-0.062384
-4.859336	拆除	-0.062384
-4.859336	乌拉尔	-0.062384
-4.859336	分手时	-0.062384
-4.382215	预料	-0.062384
-4.257277	营业	-0.062384
-4.859336	弄清	-0.062384
-4.859336	维生素	-0.062384
-4.859336	撑腰	-0.062384
-4.859336	教育系	-0.062384
-4.859336	奸诈	-0.062384
-3.956246	朝	-0.062384
-4.160367	热	-0.159294
-4.558307	烤制	-0.062384
-4.382215	走进	-0.062384
-4.859336	涌出来	-0.062384
-4.257277	武力	-0.062384
-4.859336	编写	-0.062384
-4.859336	侵袭	-0.062384
-4.859336	勤	-0.062384
-4.859336	盖在	-0.062384
-4.558307	毫不费力	-0.363414
-4.859336	贵	-0.062384
-4.257277	未能	-0.062384
-4.859336	卖力	-0.062384
-4.558307	静止	-0.062384
-4.859336	身价	-0.062384
-4.558307	录音	-0.062384
-4.859336	不可知论	-0.062384
-4.014238	进一步	-0.208512
-4.859336	交费	-0.062384
-4.859336	女用	-0.062384
-4.257277	更大	-0.363414
-4.558307	不使	-0.062384
-3.683245	语言	-0.159294
-4.558307	海报	-0.062384
-4.859336	相望	-0.062384
-4.859336	要她	-0.062384
-4.859336	口粮	-0.062384
-4.081185	似乎是	-0.141565
-4.257277	跳舞	-0.284233
-4.859336	接电话	-0.062384
-4.859336	低了	-0.062384
-4.859336	羞	-0.062384
-4.859336	女招待	-0.062384
-4.859336	精辟	-0.062384
-4.558307	焦虑	-0.539505
-4.257277	监狱	-0.062384
-4.382215	河	-0.062384
-4.859336	都写	-0.062384
-4.257277	做广告	-0.062384
-4.859336	老前辈	-0.062384
-4.859336	绝无仅有	-0.062384
-4.382215	毁灭	-0.238475
-4.859336	呕	-0.062384
-4.859336	接地	-0.062384
-4.382215	棍棒	-0.062384
-4.859336	克拉克	-0.062384
-4.859336	淌	-0.062384
-4.558307	七	-0.363414
-3.905094	报道	-0.062384
-4.859336	培植	-0.062384
-4.859336	圣诞节时	-0.062384
-4.859336	别问	-0.062384
-4.558307	博比	-0.062384
-4.382215	人人	-0.159294
-4.859336	虽有	-0.062384
-4.859336	会不会	-0.062384
-4.859336	扎入	-0.062384
-4.859336	satin	-0.062384
-4.859336	朝鲜	-0.062384
-4.859336	要不然	-0.062384
-4.859336	不在了	-0.062384
-4.859336	载运	-0.062384
-4.859336	逗她	-0.062384
-3.817944	表面	-0.062384
-2.657939	他们	-0.262900
-4.558307	占用	-0.062384
-4.859336	工作下去	-0.062384
-4.558307	现款	-0.062384
-4.859336	比喻	-0.062384
-4.859336	卧	-0.062384
-4.859336	风洞	-0.062384
-4.859336	上将	-0.062384
-4.859336	假设	-0.062384
-4.859336	生活史	-0.062384
-4.558307	肿起	-0.062384
-4.382215	减小	-0.062384
-4.382215	征兵	-0.062384
-4.558307	杀手	-0.062384
-4.382215	可不	-0.062384
-4.859336	暂减	-0.062384
-4.859336	969岁	-0.062384
-4.558307	脑子	-0.062384
-4.081185	根	-0.113537
-4.859336	台灯	-0.062384
-4.382215	打败	-0.539505
-4.382215	更为	-0.062384
-4.558307	有鬼	-0.062384
-4.859336	本题	-0.062384
-4.558307	兑现	-0.062384
-4.859336	手续	-0.062384
-3.905094	禁止	-0.113537
-4.859336	汉字	-0.062384
-4.859336	懒洋洋	-0.062384
-4.859336	傲慢无礼	-0.062384
-4.859336	淀积	-0.062384
-4.257277	无礼	-0.062384
-4.859336	女演员	-0.062384
-4.558307	白人	-0.062384
-4.859336	鼓面	-0.062384
-3.444363	失败	-0.350449
-4.859336	城墙	-0.062384
-4.859336	不凑巧	-0.062384
-4.081185	虽然	-0.137018
-4.558307	一桩	-0.062384
-4.859336	视为	-0.062384
-4.558307	客气	-0.363414
-4.859336	神圣不可	-0.062384
-4.382215	撒	-0.062384
-4.859336	谢了	-0.062384
-4.558307	理想	-0.062384
-4.859336	人民警察	-0.062384
-3.905094	电影	-0.129331
-4.859336	马到成功	-0.062384
-4.859336	召集	-0.062384
-4.859336	所发现	-0.062384
-4.859336	17	-0.062384
-4.081185	入	-0.062384
-4.014238	运输	-0.062384
-4.859336	打鼾	-0.062384
-4.859336	那片	-0.062384
-4.859336	交流思想	-0.062384
-4.859336	无非是	-0.062384
-4.859336	镶木	-0.062384
-4.859336	煽动者	-0.062384
-4.859336	拉里	-0.062384
-4.257277	笑得	-0.187323
-4.859336	椅套	-0.062384
-4.382215	不大	-0.062384
-4.859336	难能可贵	-0.062384
-4.859336	不变	-0.062384
-4.859336	私生	-0.062384
-4.859336	戴孝	-0.062384
-4.859336	上当了	-0.062384
-4.859336	半径	-0.062384
-4.859336	匹	-0.062384
-4.859336	演员表	-0.062384
-4.859336	用度	-0.062384
-4.859336	痉挛	-0.062384
-4.859336	变红	-0.062384
-3.745393	且	-0.062384
-4.558307	怎么做	-0.062384
-4.558307	萨斯喀	-0.363414
-3.859336	共同	-0.062384
-4.859336	触动	-0.062384
-4.859336	为差	-0.062384
-4.859336	漫步者	-0.062384
-4.859336	身体虚弱	-0.062384
-4.558307	大方	-0.363414
-4.014238	不知	-0.062384
-4.859336	治愈	-0.062384
-4.859336	不可缺	-0.062384
-4.859336	德比	-0.062384
-4.859336	这时候	-0.062384
-4.859336	他宁	-0.062384
-4.257277	战役	-0.062384
-4.558307	家人	-0.062384
-4.859336	嚷嚷	-0.062384
-4.558307	等面	-0.062384
-4.859336	阐释	-0.062384
-4.859336	参战	-0.062384
-4.859336	西飞	-0.062384
-4.558307	房东	-0.062384
-4.859336	禁闭	-0.062384
-4.382215	不成	-0.062384
-3.780155	选择	-0.167119
-4.859336	患难	-0.062384
-4.558307	不理睬	-0.062384
-4.859336	虚无缥渺	-0.062384
-4.859336	传动器	-0.062384
-4.859336	耗尽	-0.062384
-4.382215	很低	-0.238475
-4.859336	诱捕	-0.062384
-4.382215	一棵树	-0.062384
-4.859336	保单	-0.062384
-4.859336	庭院	-0.062384
-4.859336	参两院	-0.062384
-4.859336	将指	-0.062384
-4.859336	打卡	-0.062384
-4.859336	用得着	-0.062384
-4.859336	后学	-0.062384
-4.859336	不在意	-0.062384
-4.859336	本队	-0.062384
-4.859336	途径	-0.062384
-3.713208	机器	-0.159294
-4.859336	讲出来	-0.062384
-4.859336	毛毛雨	-0.062384
-4.859336	地方台	-0.062384
-4.558307	还可以	-0.062384
-4.859336	异母	-0.062384
-4.014238	服装	-0.238475
-3.655216	研究	-0.083573
-4.382215	蛋白质	-0.062384
-4.859336	一决雌雄	-0.062384
-3.427973	学生	-0.266504
-4.859336	百货商店	-0.062384
-4.859336	加快	-0.062384
-4.859336	停在	-0.062384
-3.713208	五	-0.208512
-4.859336	钓绳	-0.062384
-4.859336	禁烟	-0.062384
-4.859336	只喝	-0.062384
-4.859336	掺和	-0.062384
-4.859336	79元	-0.062384
-4.558307	异端邪说	-0.062384
-4.160367	倒了	-0.761354
-4.558307	抛出	-0.062384
-4.859336	草儿	-0.062384
-3.745393	立即	-0.062384
-4.558307	海员	-0.062384
-4.859336	何去	-0.062384
-4.859336	圆圈	-0.062384
-4.558307	便使	-0.062384
-4.859336	解脱	-0.062384
-4.558307	边线	-0.062384
-4.859336	教职工	-0.062384
-4.859336	和成	-0.062384
-4.859336	小镇	-0.062384
-4.558307	延迟	-0.062384
-4.859336	遮掩	-0.062384
-4.859336	1天	-0.062384
-3.780155	战斗	-0.187323
-4.558307	分派	-0.062384
-4.859336	就出	-0.062384
-4.859336	家庭不和	-0.062384
-4.859336	拴在	-0.062384
-4.859336	运载工具	-0.062384
-4.859336	受损失	-0.062384
-4.859336	医学生	-0.062384
-4.859336	伸进去	-0.062384
-4.859336	移到	-0.062384
-4.859336	维多利亚	-0.062384
-4.859336	纳什	-0.062384
-4.859336	债	-0.238475
-4.859336	254	-0.062384
-4.382215	转运	-0.238475
-4.859336	手艺人	-0.062384
-4.859336	监护仪	-0.062384
-4.859336	原由	-0.062384
-4.558307	守	-0.062384
-4.859336	沉入	-0.062384
-4.859336	伍德	-0.062384
-4.859336	突生	-0.062384
-4.558307	图像	-0.062384
-4.859336	失业保险	-0.062384
-4.859336	不忠	-0.062384
-4.859336	可被	-0.062384
-4.382215	基数	-0.238475
-4.859336	常去	-0.062384
-4.859336	行者	-0.062384
-4.859336	枪膛	-0.062384
-4.558307	爆裂	-0.363414
-4.859336	晕船	-0.062384
-4.859336	注解	-0.062384
-4.859336	堆积物	-0.062384
-4.859336	芝加哥	-0.062384
-4.558307	衬衣	-0.062384
-4.081185	退休	-0.363414
-4.558307	后排	-0.062384
-4.859336	喜悦	-0.062384
-4.558307	胜负	-0.062384
-4.859336	大便	-0.062384
-4.859336	录音带	-0.062384
-4.859336	构成基础	-0.062384
-4.859336	所有制	-0.062384
-3.859336	曾经	-0.108142
-4.859336	发光强度	-0.062384
-4.859336	卷	-0.062384
-4.859336	后下	-0.062384
-4.558307	摇摆	-0.363414
-4.859336	ms	-0.062384
-4.859336	西面	-0.062384
-4.859336	国际性	-0.062384
-4.859336	1947年	-0.062384
-4.081185	菜	-0.062384
-4.257277	所有权	-0.187323
-4.257277	裸体	-0.284233
-4.859336	成就	-0.062384
-4.081185	骑马	-0.141565
-4.859336	胆小鬼	-0.062384
-4.859336	为民	-0.062384
-4.859336	屠夫	-0.062384
-4.859336	惯	-0.062384
-3.956246	大约	-0.187323
-4.558307	液态	-0.062384
-4.859336	扬谷	-0.062384
-4.558307	检修	-0.062384
-4.859336	菜肴	-0.062384
-4.859336	缠住	-0.062384
-4.859336	不放	-0.062384
-4.859336	已为	-0.062384
-4.859336	银币	-0.062384
-4.382215	亚伯拉罕	-0.238475
-4.859336	抛锚	-0.062384
-4.081185	乘	-0.062384
-4.859336	这会儿	-0.062384
-4.859336	紧接着	-0.062384
-4.859336	了案	-0.062384
-4.859336	较高	-0.062384
-4.859336	拉伤	-0.062384
-4.859336	偷袭	-0.062384
-4.859336	可可	-0.062384
-4.859336	放假	-0.363414
-4.859336	11万	-0.062384
-3.461396	只有	-0.062384
-4.558307	时能	-0.062384
-4.382215	整整	-0.062384
-4.859336	珍爱	-0.062384
-4.558307	承诺	-0.238475
-4.859336	虽经	-0.062384
-4.859336	希尔	-0.062384
-4.558307	输出	-0.062384
-4.859336	木马	-0.062384
-4.382215	米	-0.062384
-4.859336	精锐	-0.062384
-4.859336	串珠	-0.062384
-4.859336	真令人	-0.062384
-4.382215	外观	-0.062384
-4.859336	匿名	-0.062384
-4.257277	大雾	-0.062384
-4.859336	各地区	-0.062384
-4.859336	鼓动	-0.062384
-4.859336	很早	-0.062384
-4.859336	案情	-0.062384
-4.382215	丛林	-0.062384
-4.859336	露天表演	-0.062384
-4.859336	受罚	-0.062384
-4.558307	3月	-0.062384
-4.859336	孤身一人	-0.062384
-4.859336	皮疹	-0.062384
-4.859336	共餐	-0.062384
-4.257277	散步	-0.363414
-4.859336	训训	-0.062384
-4.859336	蜂蜜水	-0.062384
-4.859336	乍	-0.062384
-4.859336	环境危害	-0.062384
-4.859336	晒衣绳	-0.062384
-4.859336	能从	-0.062384
-4.160367	加入	-0.159294
-4.859336	招待员	-0.062384
-3.461396	内	-0.117901
-4.859336	低音	-0.062384
-4.081185	烟	-0.062384
-4.014238	努力工作	-0.430361
-4.859336	帝国	-0.062384
-4.558307	订货单	-0.062384
-4.382215	抵御	-0.062384
-4.558307	贵厂	-0.062384
-4.859336	才艺	-0.062384
-4.859336	抄件	-0.062384
-3.817944	信	-0.116742
-4.558307	在头上	-0.062384
-4.859336	相关联	-0.062384
-4.859336	直言不讳	-0.062384
-4.859336	擦破	-0.062384
-4.859336	因为有	-0.062384
-4.859336	高耸	-0.062384
-4.859336	本不	-0.062384
-4.859336	内装	-0.062384
-4.558307	用处	-0.062384
-4.558307	丧生	-0.363414
-4.859336	使其	-0.062384
-4.859336	驰去	-0.062384
-4.859336	巴马州	-0.062384
-4.558307	文明	-0.062384
-4.859336	重申	-0.062384
-4.859336	暗中监视	-0.062384
-4.859336	搽	-0.062384
-4.382215	想念	-0.238475
-4.859336	无条件	-0.062384
-4.859336	瓶颈	-0.062384
-4.859336	野兔	-0.062384
-4.081185	一间	-0.062384
-4.859336	斯坦	-0.062384
-4.859336	强光	-0.062384
-4.859336	反向	-0.062384
-4.859336	介壳	-0.062384
-4.859336	就这样	-0.062384
-4.859336	面颊	-0.062384
-4.859336	中坚	-0.062384
-4.382215	大教堂	-0.062384
-4.257277	差	-0.062384
-4.558307	引发	-0.062384
-4.859336	酵母	-0.062384
-4.257277	关心	-0.062384
-4.558307	杆	-0.062384
-3.817944	特定	-0.132965
-4.382215	人心	-0.062384
-4.859336	并将	-0.062384
-4.859336	自相矛盾	-0.062384
-4.081185	唱歌	-0.141565
-4.558307	扫帚	-0.062384
-4.382215	没被	-0.062384
-4.859336	斤斤计较	-0.062384
-4.382215	火灾	-0.238475
-3.558306	最近	-0.238475
-4.382215	如果不	-0.062384
-4.382215	下一个	-0.062384
-4.859336	尼采	-0.062384
-3.683245	恢复	-0.225111
-4.859336	要吗	-0.062384
-4.859336	替人	-0.062384
-4.859336	文法学	-0.062384
-4.859336	还过得去	-0.363414
-4.859336	炮弹	-0.062384
-4.859336	问好	-0.062384
-4.257277	报导	-0.062384
-3.956246	接近	-0.187323
-4.558307	表中	-0.062384
-4.558307	市中心	-0.062384
-4.859336	角度看	-0.062384
-4.859336	古波斯	-0.062384
-4.859336	央	-0.062384
-4.859336	吃海鲜	-0.062384
-4.859336	惊慌失措	-0.062384
-4.859336	两三个	-0.062384
-4.859336	到站	-0.062384
-4.859336	病例	-0.062384
-4.859336	应该说	-0.062384
-4.859336	走访	-0.062384
-4.859336	乱叫	-0.062384
-4.382215	侵略者	-0.062384
-4.859336	说不完	-0.062384
-4.558307	乐于	-0.062384
-4.859336	结尾	-0.062384
-4.558307	拐弯	-0.363414
-4.859336	自打	-0.062384
-4.859336	明天见	-0.062384
-4.859336	六十	-0.062384
-4.558307	透过	-0.062384
-4.859336	口语化	-0.062384
-4.859336	连任	-0.062384
-4.859336	没顶	-0.062384
-4.382215	头脑	-0.159294
-4.257277	平滑	-0.062384
-4.859336	该事	-0.062384
-4.859336	西走	-0.062384
-4.859336	靠吃	-0.062384
-4.859336	宽限	-0.062384
-4.558307	磨光	-0.062384
-4.859336	有一次	-0.062384
-4.859336	全球	-0.062384
-3.745393	办公室	-0.120376
-4.859336	嬉皮笑脸	-0.062384
-4.859336	砰砰	-0.062384
-4.558307	击倒	-0.062384
-4.859336	发价	-0.062384
-4.859336	动脉	-0.062384
-4.558307	酒后	-0.062384
-4.859336	骂她	-0.062384
-4.859336	戒烟	-0.062384
-4.859336	今天有	-0.062384
-4.558307	有规律	-0.062384
-4.859336	索要	-0.062384
-4.558307	没想到	-0.062384
-4.859336	轧	-0.062384
-4.859336	冶金	-0.062384
-4.257277	同时	-0.062384
-4.257277	灵魂	-0.062384
-4.859336	液囊	-0.062384
-4.382215	实验	-0.187323
-4.859336	融入	-0.062384
-4.859336	无色	-0.062384
-4.859336	雌性花	-0.062384
-4.859336	百看不厌	-0.062384
-4.859336	感觉上	-0.062384
-4.558307	战时	-0.062384
-4.558307	伤口	-0.062384
-4.859336	桂	-0.062384
-4.859336	消散	-0.062384
-4.014238	大楼	-0.062384
-4.859336	冲洗照片	-0.062384
-4.382215	见	-0.062384
-3.956246	光	-0.149534
-4.859336	并吞	-0.062384
-4.558307	装载	-0.062384
-4.558307	镜	-0.062384
-4.558307	花瓣	-0.062384
-4.859336	随带	-0.062384
-4.859336	要卖	-0.062384
-4.859336	绞死	-0.062384
-4.014238	形	-0.129331
-4.859336	错误百出	-0.062384
-3.859336	办法	-0.322021
-4.558307	少见	-0.062384
-4.382215	地带	-0.062384
-4.859336	形如	-0.062384
-4.859336	卸了	-0.062384
-4.257277	涉及	-0.062384
-4.859336	烫伤	-0.062384
-4.558307	纱	-0.062384
-4.859336	小艇	-0.062384
-3.956246	似	-0.062384
-4.859336	1900年	-0.062384
-4.558307	急	-0.062384
-4.558307	各地	-0.062384
-3.039793	中的	-0.131465
-4.859336	布娃娃	-0.062384
-4.558307	阻拦	-0.062384
-4.859336	两倍	-0.062384
-4.859336	风磨	-0.062384
-4.859336	耐用	-0.062384
-4.859336	得用	-0.062384
-4.859336	擦伤	-0.062384
-4.257277	效果	-0.238475
-4.558307	安德鲁	-0.363414
-4.859336	洗熨	-0.062384
-4.558307	男子汉	-0.062384
-3.169140	会	-0.103220
-3.111148	能	-0.113537
-4.382215	滑	-0.062384
-4.859336	讲明	-0.062384
-4.859336	售完	-0.062384
-2.202281	他	-0.399692
-4.859336	麦子	-0.062384
-4.859336	厚颜无耻	-0.062384
-4.859336	高难度	-0.062384
-4.859336	堆积	-0.062384
-4.558307	马德拉	-0.062384
-4.859336	暴露在	-0.062384
-4.859336	何人	-0.062384
-4.859336	做操	-0.062384
-4.859336	离心机	-0.062384
-4.382215	不满	-0.284233
-4.859336	一切都在	-0.062384
-4.859336	不称职	-0.062384
-4.859336	压抑心理	-0.062384
-4.257277	很长时间	-0.187323
-4.859336	丢弃	-0.062384
-3.956246	记忆	-0.062384
-4.859336	星球	-0.062384
-4.859336	有光泽	-0.062384
-4.859336	用膳	-0.062384
-4.859336	服务部	-0.363414
-4.160367	书面	-0.062384
-4.859336	尤须	-0.062384
-4.859336	激进派	-0.062384
-4.859336	架势	-0.363414
-4.859336	埋藏	-0.062384
-3.604064	使人	-0.085865
-4.859336	这也	-0.062384
-4.859336	放上	-0.062384
-4.859336	学术刊物	-0.062384
-4.558307	没看	-0.062384
-3.354187	房间	-0.344109
-4.382215	出租车	-0.062384
-4.081185	付钱	-0.363414
-4.859336	瓦尔	-0.062384
-4.859336	保险所	-0.062384
-4.859336	施工	-0.062384
-4.859336	几何	-0.062384
-4.859336	不作为	-0.062384
-3.905094	轻	-0.113537
-4.859336	安培	-0.062384
-4.859336	山田	-0.062384
-4.859336	惊起	-0.062384
-4.859336	吹倒	-0.062384
-4.382215	卷入	-0.062384
-4.859336	疑心	-0.062384
-4.382215	指望	-0.062384
-4.558307	奶牛	-0.062384
-4.382215	延期	-0.062384
-4.382215	客房	-0.238475
-4.859336	奖学金	-0.062384
-4.859336	布兰	-0.062384
-4.859336	留待	-0.062384
-4.257277	出租	-0.062384
-4.859336	十箱	-0.062384
-4.558307	再次	-0.062384
-4.160367	赞扬	-0.159294
-4.859336	在用	-0.062384
-4.859336	败坏	-0.062384
-4.859336	100名	-0.062384
-4.859336	洒	-0.062384
-4.859336	那个时候	-0.062384
-4.014238	把钱	-0.062384
-4.081185	一大	-0.062384
-4.081185	好些	-0.238475
-3.956246	刺激	-0.171529
-4.859336	但没	-0.062384
-4.859336	中提	-0.062384
-4.558307	却没有	-0.062384
-4.859336	穷得	-0.062384
-4.859336	美籍	-0.062384
-4.859336	干不了	-0.062384
-4.859336	脓	-0.062384
-3.956246	批评	-0.062384
-4.160367	增强	-0.062384
-4.382215	玩具	-0.141565
-4.859336	过活	-0.062384
-4.859336	调准	-0.062384
-4.558307	东	-0.062384
-4.859336	眼线	-0.062384
-3.745393	愉快	-0.636415
-4.859336	威尔士	-0.062384
-4.859336	停不下来	-0.062384
-3.628888	事业	-0.338590
-4.558307	活到	-0.062384
-4.859336	合上	-0.062384
-4.558307	领头	-0.062384
-4.558307	这周	-0.062384
-4.558307	中等	-0.062384
-4.859336	抽象	-0.062384
-4.382215	手法	-0.238475
-4.257277	击败	-0.062384
